<?xml version="1.0"?>
<opencv_storage>
<cascade>
  <stageType>BOOST</stageType>
  <featureType>HAAR</featureType>
  <height>24</height>
  <width>24</width>
  <stageParams>
    <boostType>GAB</boostType>
    <minHitRate>9.9900001287460327e-01</minHitRate>
    <maxFalseAlarm>5.0000000000000000e-01</maxFalseAlarm>
    <weightTrimRate>9.4999999999999996e-01</weightTrimRate>
    <maxDepth>1</maxDepth>
    <maxWeakCount>100</maxWeakCount></stageParams>
  <featureParams>
    <maxCatCount>0</maxCatCount>
    <featSize>1</featSize>
    <mode>ALL</mode></featureParams>
  <stageNum>13</stageNum>
  <stages>
    <!-- stage 0 -->
    <_>
      <maxWeakCount>2</maxWeakCount>
      <stageThreshold>-1.3606932163238525e+00</stageThreshold>
      <weakClassifiers>
        <_>
          <internalNodes>
            0 -1 47 -1.8806303851306438e-03</internalNodes>
          <leafValues>
            -3.7795275449752808e-01 -9.9344623088836670e-01</leafValues></_>
        <_>
          <internalNodes>
            0 -1 44 -2.1396393422037363e-03</internalNodes>
          <leafValues>
            1.9861138425767422e-03 -9.8274046182632446e-01</leafValues></_></weakClassifiers></_>
    <!-- stage 1 -->
    <_>
      <maxWeakCount>4</maxWeakCount>
      <stageThreshold>-2.1564877033233643e+00</stageThreshold>
      <weakClassifiers>
        <_>
          <internalNodes>
            0 -1 2 -1.2817305326461792e-01</internalNodes>
          <leafValues>
            2.9824560880661011e-01 -9.5266270637512207e-01</leafValues></_>
        <_>
          <internalNodes>
            0 -1 45 -2.8933051507920027e-03</internalNodes>
          <leafValues>
            5.5537176132202148e-01 -8.1094247102737427e-01</leafValues></_>
        <_>
          <internalNodes>
            0 -1 6 -1.6622431576251984e-02</internalNodes>
          <leafValues>
            5.5897730588912964e-01 -8.1786465644836426e-01</leafValues></_>
        <_>
          <internalNodes>
            0 -1 3 -1.8173211812973022e-01</internalNodes>
          <leafValues>
            4.2498207092285156e-01 -7.0609110593795776e-01</leafValues></_></weakClassifiers></_>
    <!-- stage 2 -->
    <_>
      <maxWeakCount>4</maxWeakCount>
      <stageThreshold>-2.0578923225402832e+00</stageThreshold>
      <weakClassifiers>
        <_>
          <internalNodes>
            0 -1 50 -1.0077333077788353e-02</internalNodes>
          <leafValues>
            5.4545456171035767e-01 -9.3407660722732544e-01</leafValues></_>
        <_>
          <internalNodes>
            0 -1 0 -1.4864841103553772e-01</internalNodes>
          <leafValues>
            3.4952762722969055e-01 -8.5356414318084717e-01</leafValues></_>
        <_>
          <internalNodes>
            0 -1 54 -1.5765449497848749e-03</internalNodes>
          <leafValues>
            4.0828740596771240e-01 -6.2435394525527954e-01</leafValues></_>
        <_>
          <internalNodes>
            0 -1 69 6.7035974934697151e-03</internalNodes>
          <leafValues>
            -6.7853903770446777e-01 4.0045469999313354e-01</leafValues></_></weakClassifiers></_>
    <!-- stage 3 -->
    <_>
      <maxWeakCount>6</maxWeakCount>
      <stageThreshold>-1.9443222284317017e+00</stageThreshold>
      <weakClassifiers>
        <_>
          <internalNodes>
            0 -1 8 -1.6893818974494934e-01</internalNodes>
          <leafValues>
            6.4705884456634521e-01 -9.3133461475372314e-01</leafValues></_>
        <_>
          <internalNodes>
            0 -1 65 8.6906068027019501e-03</internalNodes>
          <leafValues>
            -7.2876816987991333e-01 4.1431212425231934e-01</leafValues></_>
        <_>
          <internalNodes>
            0 -1 26 -1.4506494998931885e-01</internalNodes>
          <leafValues>
            4.5635455846786499e-01 -6.4593827724456787e-01</leafValues></_>
        <_>
          <internalNodes>
            0 -1 38 2.3595192469656467e-03</internalNodes>
          <leafValues>
            -3.6305072903633118e-01 7.5254076719284058e-01</leafValues></_>
        <_>
          <internalNodes>
            0 -1 16 -2.9308157041668892e-02</internalNodes>
          <leafValues>
            3.3078646659851074e-01 -8.9473980665206909e-01</leafValues></_>
        <_>
          <internalNodes>
            0 -1 55 -2.1189453545957804e-03</internalNodes>
          <leafValues>
            5.1721662282943726e-01 -4.4471088051795959e-01</leafValues></_></weakClassifiers></_>
    <!-- stage 4 -->
    <_>
      <maxWeakCount>5</maxWeakCount>
      <stageThreshold>-2.0193321704864502e+00</stageThreshold>
      <weakClassifiers>
        <_>
          <internalNodes>
            0 -1 61 4.8255063593387604e-03</internalNodes>
          <leafValues>
            -9.3116819858551025e-01 2.7272728085517883e-01</leafValues></_>
        <_>
          <internalNodes>
            0 -1 1 -5.6115925312042236e-02</internalNodes>
          <leafValues>
            2.2067092359066010e-01 -7.5399732589721680e-01</leafValues></_>
        <_>
          <internalNodes>
            0 -1 57 -7.6592210680246353e-03</internalNodes>
          <leafValues>
            6.6071790456771851e-01 -3.9848613739013672e-01</leafValues></_>
        <_>
          <internalNodes>
            0 -1 67 2.7256075292825699e-02</internalNodes>
          <leafValues>
            -4.4481098651885986e-01 5.0980263948440552e-01</leafValues></_>
        <_>
          <internalNodes>
            0 -1 58 -1.9656759686768055e-03</internalNodes>
          <leafValues>
            5.0913047790527344e-01 -3.9076331257820129e-01</leafValues></_></weakClassifiers></_>
    <!-- stage 5 -->
    <_>
      <maxWeakCount>5</maxWeakCount>
      <stageThreshold>-1.9194709062576294e+00</stageThreshold>
      <weakClassifiers>
        <_>
          <internalNodes>
            0 -1 18 -3.1377192586660385e-02</internalNodes>
          <leafValues>
            1. -9.2678225040435791e-01</leafValues></_>
        <_>
          <internalNodes>
            0 -1 43 7.4742641299962997e-04</internalNodes>
          <leafValues>
            -8.7367480993270874e-01 -1.9669754803180695e-01</leafValues></_>
        <_>
          <internalNodes>
            0 -1 24 -9.9859125912189484e-03</internalNodes>
          <leafValues>
            -1. 1.0455981828272343e-02</leafValues></_>
        <_>
          <internalNodes>
            0 -1 22 -2.2423174232244492e-03</internalNodes>
          <leafValues>
            -7.5810229778289795e-01 2.0751969516277313e-01</leafValues></_>
        <_>
          <internalNodes>
            0 -1 13 3.1466331332921982e-02</internalNodes>
          <leafValues>
            -3.3698955178260803e-01 6.3302516937255859e-01</leafValues></_></weakClassifiers></_>
    <!-- stage 6 -->
    <_>
      <maxWeakCount>7</maxWeakCount>
      <stageThreshold>-2.1069080829620361e+00</stageThreshold>
      <weakClassifiers>
        <_>
          <internalNodes>
            0 -1 15 -1.1197223328053951e-02</internalNodes>
          <leafValues>
            1. -9.2678225040435791e-01</leafValues></_>
        <_>
          <internalNodes>
            0 -1 33 -4.5632543042302132e-03</internalNodes>
          <leafValues>
            4.5346045494079590e-01 -7.1263939142227173e-01</leafValues></_>
        <_>
          <internalNodes>
            0 -1 72 -2.6989188045263290e-02</internalNodes>
          <leafValues>
            1.9072903692722321e-01 -6.8183737993240356e-01</leafValues></_>
        <_>
          <internalNodes>
            0 -1 43 4.4070155126973987e-04</internalNodes>
          <leafValues>
            -5.2614074945449829e-01 3.0877813696861267e-01</leafValues></_>
        <_>
          <internalNodes>
            0 -1 10 -2.3490455932915211e-03</internalNodes>
          <leafValues>
            -9.1690480709075928e-01 1.7697779834270477e-01</leafValues></_>
        <_>
          <internalNodes>
            0 -1 9 -3.3489586785435677e-03</internalNodes>
          <leafValues>
            4.4867175817489624e-01 -3.7808495759963989e-01</leafValues></_>
        <_>
          <internalNodes>
            0 -1 56 -3.1462335027754307e-03</internalNodes>
          <leafValues>
            7.7535843849182129e-01 -2.2450096905231476e-01</leafValues></_></weakClassifiers></_>
    <!-- stage 7 -->
    <_>
      <maxWeakCount>6</maxWeakCount>
      <stageThreshold>-2.2102456092834473e+00</stageThreshold>
      <weakClassifiers>
        <_>
          <internalNodes>
            0 -1 31 -2.3403899744153023e-02</internalNodes>
          <leafValues>
            1. -9.2678225040435791e-01</leafValues></_>
        <_>
          <internalNodes>
            0 -1 40 4.1503384709358215e-03</internalNodes>
          <leafValues>
            -6.9501894712448120e-01 4.6457779407501221e-01</leafValues></_>
        <_>
          <internalNodes>
            0 -1 49 -1.0897971689701080e-02</internalNodes>
          <leafValues>
            2.5001829862594604e-01 -6.1965101957321167e-01</leafValues></_>
        <_>
          <internalNodes>
            0 -1 12 -1.4922202099114656e-03</internalNodes>
          <leafValues>
            2.6614284515380859e-01 -6.8544149398803711e-01</leafValues></_>
        <_>
          <internalNodes>
            0 -1 36 -2.6758653111755848e-03</internalNodes>
          <leafValues>
            4.7590860724449158e-01 -4.6693581342697144e-01</leafValues></_>
        <_>
          <internalNodes>
            0 -1 29 6.4252759329974651e-03</internalNodes>
          <leafValues>
            2.3199957609176636e-01 -1.</leafValues></_></weakClassifiers></_>
    <!-- stage 8 -->
    <_>
      <maxWeakCount>6</maxWeakCount>
      <stageThreshold>-1.8435603380203247e+00</stageThreshold>
      <weakClassifiers>
        <_>
          <internalNodes>
            0 -1 11 1.9415166229009628e-02</internalNodes>
          <leafValues>
            -9.2860591411590576e-01 8.3333331346511841e-01</leafValues></_>
        <_>
          <internalNodes>
            0 -1 46 3.3321410883218050e-03</internalNodes>
          <leafValues>
            -7.1214216947555542e-01 2.3120173811912537e-01</leafValues></_>
        <_>
          <internalNodes>
            0 -1 62 5.6077875196933746e-02</internalNodes>
          <leafValues>
            -5.5932325124740601e-01 2.9854151606559753e-01</leafValues></_>
        <_>
          <internalNodes>
            0 -1 70 3.8154427893459797e-03</internalNodes>
          <leafValues>
            -8.1364041566848755e-01 2.0156018435955048e-01</leafValues></_>
        <_>
          <internalNodes>
            0 -1 41 2.5402507744729519e-03</internalNodes>
          <leafValues>
            2.3768866062164307e-01 -7.3765838146209717e-01</leafValues></_>
        <_>
          <internalNodes>
            0 -1 52 3.6811465397477150e-03</internalNodes>
          <leafValues>
            -9.4060260057449341e-01 9.6287049353122711e-02</leafValues></_></weakClassifiers></_>
    <!-- stage 9 -->
    <_>
      <maxWeakCount>8</maxWeakCount>
      <stageThreshold>-2.0931539535522461e+00</stageThreshold>
      <weakClassifiers>
        <_>
          <internalNodes>
            0 -1 51 1.2796641327440739e-02</internalNodes>
          <leafValues>
            -9.2678225040435791e-01 1.</leafValues></_>
        <_>
          <internalNodes>
            0 -1 35 -8.8859656825661659e-03</internalNodes>
          <leafValues>
            5.9690183401107788e-01 -6.8376147747039795e-01</leafValues></_>
        <_>
          <internalNodes>
            0 -1 66 -1.8942365422844887e-03</internalNodes>
          <leafValues>
            2.1767237782478333e-01 -5.5468606948852539e-01</leafValues></_>
        <_>
          <internalNodes>
            0 -1 59 8.3397720009088516e-03</internalNodes>
          <leafValues>
            -4.1007238626480103e-01 3.8951897621154785e-01</leafValues></_>
        <_>
          <internalNodes>
            0 -1 39 -4.9071136163547635e-04</internalNodes>
          <leafValues>
            3.2871243357658386e-01 -4.4249778985977173e-01</leafValues></_>
        <_>
          <internalNodes>
            0 -1 21 2.1867209579795599e-03</internalNodes>
          <leafValues>
            -2.7700242400169373e-01 5.5926090478897095e-01</leafValues></_>
        <_>
          <internalNodes>
            0 -1 42 -4.9000307917594910e-03</internalNodes>
          <leafValues>
            2.9012697935104370e-01 -5.4464405775070190e-01</leafValues></_>
        <_>
          <internalNodes>
            0 -1 25 1.4041117392480373e-03</internalNodes>
          <leafValues>
            1.7549093067646027e-01 -8.7361031770706177e-01</leafValues></_></weakClassifiers></_>
    <!-- stage 10 -->
    <_>
      <maxWeakCount>7</maxWeakCount>
      <stageThreshold>-1.8599684238433838e+00</stageThreshold>
      <weakClassifiers>
        <_>
          <internalNodes>
            0 -1 17 -2.5151666253805161e-02</internalNodes>
          <leafValues>
            1. -9.2678225040435791e-01</leafValues></_>
        <_>
          <internalNodes>
            0 -1 48 5.8221146464347839e-02</internalNodes>
          <leafValues>
            -6.1527651548385620e-01 -1.4227890968322754e-01</leafValues></_>
        <_>
          <internalNodes>
            0 -1 7 1.6904510557651520e-02</internalNodes>
          <leafValues>
            -3.4541079401969910e-01 4.4013422727584839e-01</leafValues></_>
        <_>
          <internalNodes>
            0 -1 53 5.2843010053038597e-03</internalNodes>
          <leafValues>
            -2.7855607867240906e-01 6.0309576988220215e-01</leafValues></_>
        <_>
          <internalNodes>
            0 -1 19 1.9949559122323990e-02</internalNodes>
          <leafValues>
            1.6392913460731506e-01 -9.1005390882492065e-01</leafValues></_>
        <_>
          <internalNodes>
            0 -1 30 -7.6115643605589867e-03</internalNodes>
          <leafValues>
            7.6505982875823975e-01 -2.0448403060436249e-01</leafValues></_>
        <_>
          <internalNodes>
            0 -1 68 -1.4773957431316376e-02</internalNodes>
          <leafValues>
            4.1940566897392273e-01 -3.3449363708496094e-01</leafValues></_></weakClassifiers></_>
    <!-- stage 11 -->
    <_>
      <maxWeakCount>7</maxWeakCount>
      <stageThreshold>-1.9806613922119141e+00</stageThreshold>
      <weakClassifiers>
        <_>
          <internalNodes>
            0 -1 27 3.0422672629356384e-02</internalNodes>
          <leafValues>
            -9.2764109373092651e-01 6.6666668653488159e-01</leafValues></_>
        <_>
          <internalNodes>
            0 -1 63 2.6022918522357941e-02</internalNodes>
          <leafValues>
            -6.8435651063919067e-01 6.2535929679870605e-01</leafValues></_>
        <_>
          <internalNodes>
            0 -1 23 1.4028144069015980e-03</internalNodes>
          <leafValues>
            -3.9453387260437012e-01 3.5120788216590881e-01</leafValues></_>
        <_>
          <internalNodes>
            0 -1 5 -2.4317197501659393e-02</internalNodes>
          <leafValues>
            2.8491842746734619e-01 -6.0512965917587280e-01</leafValues></_>
        <_>
          <internalNodes>
            0 -1 71 -1.5212884172797203e-03</internalNodes>
          <leafValues>
            -9.1046756505966187e-01 1.3641676306724548e-01</leafValues></_>
        <_>
          <internalNodes>
            0 -1 64 1.1210122611373663e-03</internalNodes>
          <leafValues>
            2.0035848021507263e-01 -7.1156710386276245e-01</leafValues></_>
        <_>
          <internalNodes>
            0 -1 73 1.8957031890749931e-02</internalNodes>
          <leafValues>
            -2.9468104243278503e-01 6.0460323095321655e-01</leafValues></_></weakClassifiers></_>
    <!-- stage 12 -->
    <_>
      <maxWeakCount>8</maxWeakCount>
      <stageThreshold>-1.9855673313140869e+00</stageThreshold>
      <weakClassifiers>
        <_>
          <internalNodes>
            0 -1 60 -6.4829587936401367e-03</internalNodes>
          <leafValues>
            7.3333334922790527e-01 -9.3043476343154907e-01</leafValues></_>
        <_>
          <internalNodes>
            0 -1 20 3.4546330571174622e-03</internalNodes>
          <leafValues>
            -7.0990914106369019e-01 2.7423173189163208e-01</leafValues></_>
        <_>
          <internalNodes>
            0 -1 4 -3.1589823774993420e-03</internalNodes>
          <leafValues>
            -8.3126127719879150e-01 3.4758280962705612e-02</leafValues></_>
        <_>
          <internalNodes>
            0 -1 14 2.5579738430678844e-03</internalNodes>
          <leafValues>
            -4.0582036972045898e-01 3.2401955127716064e-01</leafValues></_>
        <_>
          <internalNodes>
            0 -1 28 1.3492604717612267e-02</internalNodes>
          <leafValues>
            2.0258872210979462e-01 -7.4992561340332031e-01</leafValues></_>
        <_>
          <internalNodes>
            0 -1 32 -6.2224352732300758e-03</internalNodes>
          <leafValues>
            -6.9547122716903687e-01 1.9353400170803070e-01</leafValues></_>
        <_>
          <internalNodes>
            0 -1 34 4.1302433237433434e-03</internalNodes>
          <leafValues>
            1.3786225020885468e-01 -8.5482698678970337e-01</leafValues></_>
        <_>
          <internalNodes>
            0 -1 37 -2.0017154514789581e-02</internalNodes>
          <leafValues>
            6.6157770156860352e-01 -2.4529701471328735e-01</leafValues></_></weakClassifiers></_></stages>
  <features>
    <_>
      <rects>
        <_>
          0 6 24 9 -1.</_>
        <_>
          6 6 12 9 2.</_></rects>
      <tilted>0</tilted></_>
    <_>
      <rects>
        <_>
          0 9 8 5 -1.</_>
        <_>
          4 9 4 5 2.</_></rects>
      <tilted>0</tilted></_>
    <_>
      <rects>
        <_>
          0 9 24 5 -1.</_>
        <_>
          6 9 12 5 2.</_></rects>
      <tilted>0</tilted></_>
    <_>
      <rects>
        <_>
          1 1 12 21 -1.</_>
        <_>
          5 8 4 7 9.</_></rects>
      <tilted>0</tilted></_>
    <_>
      <rects>
        <_>
          1 2 15 3 -1.</_>
        <_>
          1 3 15 1 3.</_></rects>
      <tilted>0</tilted></_>
    <_>
      <rects>
        <_>
          3 0 9 17 -1.</_>
        <_>
          6 0 3 17 3.</_></rects>
      <tilted>0</tilted></_>
    <_>
      <rects>
        <_>
          3 7 8 9 -1.</_>
        <_>
          5 7 4 9 2.</_></rects>
      <tilted>0</tilted></_>
    <_>
      <rects>
        <_>
          3 11 4 10 -1.</_>
        <_>
          3 11 2 5 2.</_>
        <_>
          5 16 2 5 2.</_></rects>
      <tilted>0</tilted></_>
    <_>
      <rects>
        <_>
          4 1 3 21 -1.</_>
        <_>
          5 8 1 7 9.</_></rects>
      <tilted>0</tilted></_>
    <_>
      <rects>
        <_>
          4 8 3 6 -1.</_>
        <_>
          5 8 1 6 3.</_></rects>
      <tilted>0</tilted></_>
    <_>
      <rects>
        <_>
          5 1 8 2 -1.</_>
        <_>
          5 1 8 1 2.</_></rects>
      <tilted>1</tilted></_>
    <_>
      <rects>
        <_>
          5 5 4 4 -1.</_>
        <_>
          5 5 2 2 2.</_>
        <_>
          7 7 2 2 2.</_></rects>
      <tilted>0</tilted></_>
    <_>
      <rects>
        <_>
          5 5 4 15 -1.</_>
        <_>
          7 5 2 15 2.</_></rects>
      <tilted>0</tilted></_>
    <_>
      <rects>
        <_>
          5 6 4 3 -1.</_>
        <_>
          5 6 2 3 2.</_></rects>
      <tilted>1</tilted></_>
    <_>
      <rects>
        <_>
          5 9 6 7 -1.</_>
        <_>
          8 9 3 7 2.</_></rects>
      <tilted>0</tilted></_>
    <_>
      <rects>
        <_>
          5 11 2 4 -1.</_>
        <_>
          5 11 1 2 2.</_>
        <_>
          6 13 1 2 2.</_></rects>
      <tilted>0</tilted></_>
    <_>
      <rects>
        <_>
          6 7 13 8 -1.</_>
        <_>
          6 11 13 4 2.</_></rects>
      <tilted>0</tilted></_>
    <_>
      <rects>
        <_>
          7 4 3 2 -1.</_>
        <_>
          8 5 1 2 3.</_></rects>
      <tilted>1</tilted></_>
    <_>
      <rects>
        <_>
          7 4 3 3 -1.</_>
        <_>
          8 5 1 3 3.</_></rects>
      <tilted>1</tilted></_>
    <_>
      <rects>
        <_>
          7 5 4 14 -1.</_>
        <_>
          9 5 2 14 2.</_></rects>
      <tilted>0</tilted></_>
    <_>
      <rects>
        <_>
          7 6 1 3 -1.</_>
        <_>
          7 7 1 1 3.</_></rects>
      <tilted>0</tilted></_>
    <_>
      <rects>
        <_>
          7 9 4 3 -1.</_>
        <_>
          8 9 2 3 2.</_></rects>
      <tilted>0</tilted></_>
    <_>
      <rects>
        <_>
          7 9 6 5 -1.</_>
        <_>
          9 9 2 5 3.</_></rects>
      <tilted>0</tilted></_>
    <_>
      <rects>
        <_>
          7 10 4 2 -1.</_>
        <_>
          7 10 2 1 2.</_>
        <_>
          9 11 2 1 2.</_></rects>
      <tilted>0</tilted></_>
    <_>
      <rects>
        <_>
          7 10 10 8 -1.</_>
        <_>
          12 10 5 8 2.</_></rects>
      <tilted>0</tilted></_>
    <_>
      <rects>
        <_>
          8 0 4 2 -1.</_>
        <_>
          10 0 2 2 2.</_></rects>
      <tilted>0</tilted></_>
    <_>
      <rects>
        <_>
          8 0 16 8 -1.</_>
        <_>
          12 4 8 8 2.</_></rects>
      <tilted>1</tilted></_>
    <_>
      <rects>
        <_>
          8 3 2 6 -1.</_>
        <_>
          8 3 1 6 2.</_></rects>
      <tilted>1</tilted></_>
    <_>
      <rects>
        <_>
          8 5 16 4 -1.</_>
        <_>
          12 5 8 4 2.</_></rects>
      <tilted>0</tilted></_>
    <_>
      <rects>
        <_>
          8 11 9 3 -1.</_>
        <_>
          11 12 3 1 9.</_></rects>
      <tilted>0</tilted></_>
    <_>
      <rects>
        <_>
          8 14 4 3 -1.</_>
        <_>
          8 15 4 1 3.</_></rects>
      <tilted>0</tilted></_>
    <_>
      <rects>
        <_>
          8 15 4 4 -1.</_>
        <_>
          8 16 4 2 2.</_></rects>
      <tilted>0</tilted></_>
    <_>
      <rects>
        <_>
          9 9 8 7 -1.</_>
        <_>
          11 9 4 7 2.</_></rects>
      <tilted>0</tilted></_>
    <_>
      <rects>
        <_>
          9 11 3 1 -1.</_>
        <_>
          10 11 1 1 3.</_></rects>
      <tilted>0</tilted></_>
    <_>
      <rects>
        <_>
          9 11 8 2 -1.</_>
        <_>
          11 11 4 2 2.</_></rects>
      <tilted>0</tilted></_>
    <_>
      <rects>
        <_>
          9 14 6 2 -1.</_>
        <_>
          9 14 3 1 2.</_>
        <_>
          12 15 3 1 2.</_></rects>
      <tilted>0</tilted></_>
    <_>
      <rects>
        <_>
          10 7 8 2 -1.</_>
        <_>
          10 7 4 1 2.</_>
        <_>
          14 8 4 1 2.</_></rects>
      <tilted>0</tilted></_>
    <_>
      <rects>
        <_>
          10 9 6 3 -1.</_>
        <_>
          12 10 2 1 9.</_></rects>
      <tilted>0</tilted></_>
    <_>
      <rects>
        <_>
          10 10 2 2 -1.</_>
        <_>
          10 10 1 1 2.</_>
        <_>
          11 11 1 1 2.</_></rects>
      <tilted>0</tilted></_>
    <_>
      <rects>
        <_>
          10 12 2 3 -1.</_>
        <_>
          11 12 1 3 2.</_></rects>
      <tilted>0</tilted></_>
    <_>
      <rects>
        <_>
          10 13 1 3 -1.</_>
        <_>
          10 14 1 1 3.</_></rects>
      <tilted>0</tilted></_>
    <_>
      <rects>
        <_>
          11 4 8 5 -1.</_>
        <_>
          13 4 4 5 2.</_></rects>
      <tilted>0</tilted></_>
    <_>
      <rects>
        <_>
          11 9 11 4 -1.</_>
        <_>
          10 10 11 2 2.</_></rects>
      <tilted>1</tilted></_>
    <_>
      <rects>
        <_>
          11 10 1 4 -1.</_>
        <_>
          11 11 1 2 2.</_></rects>
      <tilted>0</tilted></_>
    <_>
      <rects>
        <_>
          11 10 1 4 -1.</_>
        <_>
          11 12 1 2 2.</_></rects>
      <tilted>0</tilted></_>
    <_>
      <rects>
        <_>
          11 11 3 1 -1.</_>
        <_>
          12 11 1 1 3.</_></rects>
      <tilted>0</tilted></_>
    <_>
      <rects>
        <_>
          11 11 2 2 -1.</_>
        <_>
          11 11 1 1 2.</_>
        <_>
          12 12 1 1 2.</_></rects>
      <tilted>0</tilted></_>
    <_>
      <rects>
        <_>
          11 11 2 2 -1.</_>
        <_>
          11 12 2 1 2.</_></rects>
      <tilted>0</tilted></_>
    <_>
      <rects>
        <_>
          11 15 3 6 -1.</_>
        <_>
          11 15 3 3 2.</_></rects>
      <tilted>1</tilted></_>
    <_>
      <rects>
        <_>
          12 1 8 15 -1.</_>
        <_>
          14 1 4 15 2.</_></rects>
      <tilted>0</tilted></_>
    <_>
      <rects>
        <_>
          12 7 4 2 -1.</_>
        <_>
          12 7 2 1 2.</_>
        <_>
          14 8 2 1 2.</_></rects>
      <tilted>0</tilted></_>
    <_>
      <rects>
        <_>
          12 8 4 2 -1.</_>
        <_>
          12 8 2 1 2.</_>
        <_>
          14 9 2 1 2.</_></rects>
      <tilted>0</tilted></_>
    <_>
      <rects>
        <_>
          12 8 2 4 -1.</_>
        <_>
          12 8 2 2 2.</_></rects>
      <tilted>1</tilted></_>
    <_>
      <rects>
        <_>
          12 10 3 4 -1.</_>
        <_>
          13 10 1 4 3.</_></rects>
      <tilted>0</tilted></_>
    <_>
      <rects>
        <_>
          13 8 1 4 -1.</_>
        <_>
          12 9 1 2 2.</_></rects>
      <tilted>1</tilted></_>
    <_>
      <rects>
        <_>
          13 8 6 2 -1.</_>
        <_>
          13 8 3 1 2.</_>
        <_>
          16 9 3 1 2.</_></rects>
      <tilted>0</tilted></_>
    <_>
      <rects>
        <_>
          13 9 1 2 -1.</_>
        <_>
          13 10 1 1 2.</_></rects>
      <tilted>0</tilted></_>
    <_>
      <rects>
        <_>
          13 9 3 3 -1.</_>
        <_>
          14 9 1 3 3.</_></rects>
      <tilted>0</tilted></_>
    <_>
      <rects>
        <_>
          13 15 2 4 -1.</_>
        <_>
          13 16 2 2 2.</_></rects>
      <tilted>0</tilted></_>
    <_>
      <rects>
        <_>
          14 2 4 4 -1.</_>
        <_>
          14 2 4 2 2.</_></rects>
      <tilted>1</tilted></_>
    <_>
      <rects>
        <_>
          14 5 1 3 -1.</_>
        <_>
          14 6 1 1 3.</_></rects>
      <tilted>0</tilted></_>
    <_>
      <rects>
        <_>
          14 6 1 2 -1.</_>
        <_>
          14 7 1 1 2.</_></rects>
      <tilted>0</tilted></_>
    <_>
      <rects>
        <_>
          14 7 10 9 -1.</_>
        <_>
          19 7 5 9 2.</_></rects>
      <tilted>0</tilted></_>
    <_>
      <rects>
        <_>
          14 8 3 3 -1.</_>
        <_>
          15 9 1 1 9.</_></rects>
      <tilted>0</tilted></_>
    <_>
      <rects>
        <_>
          14 8 6 6 -1.</_>
        <_>
          16 10 2 2 9.</_></rects>
      <tilted>0</tilted></_>
    <_>
      <rects>
        <_>
          14 9 3 3 -1.</_>
        <_>
          15 9 1 3 3.</_></rects>
      <tilted>0</tilted></_>
    <_>
      <rects>
        <_>
          14 9 4 3 -1.</_>
        <_>
          16 9 2 3 2.</_></rects>
      <tilted>0</tilted></_>
    <_>
      <rects>
        <_>
          15 7 8 6 -1.</_>
        <_>
          19 7 4 6 2.</_></rects>
      <tilted>0</tilted></_>
    <_>
      <rects>
        <_>
          15 13 6 10 -1.</_>
        <_>
          15 13 3 5 2.</_>
        <_>
          18 18 3 5 2.</_></rects>
      <tilted>0</tilted></_>
    <_>
      <rects>
        <_>
          16 10 4 7 -1.</_>
        <_>
          18 10 2 7 2.</_></rects>
      <tilted>0</tilted></_>
    <_>
      <rects>
        <_>
          17 5 4 6 -1.</_>
        <_>
          17 5 2 6 2.</_></rects>
      <tilted>1</tilted></_>
    <_>
      <rects>
        <_>
          17 8 3 4 -1.</_>
        <_>
          17 8 3 2 2.</_></rects>
      <tilted>1</tilted></_>
    <_>
      <rects>
        <_>
          19 3 1 18 -1.</_>
        <_>
          13 9 1 6 3.</_></rects>
      <tilted>1</tilted></_>
    <_>
      <rects>
        <_>
          20 10 3 9 -1.</_>
        <_>
          21 11 1 9 3.</_></rects>
      <tilted>1</tilted></_></features></cascade>
</opencv_storage>
