<?xml version="1.0"?>
<opencv_storage>
<cascade>
  <stageType>BOOST</stageType>
  <featureType>HAAR</featureType>
  <height>24</height>
  <width>24</width>
  <stageParams>
    <boostType>GAB</boostType>
    <minHitRate>9.9900001287460327e-01</minHitRate>
    <maxFalseAlarm>5.0000000000000000e-01</maxFalseAlarm>
    <weightTrimRate>9.4999999999999996e-01</weightTrimRate>
    <maxDepth>1</maxDepth>
    <maxWeakCount>100</maxWeakCount></stageParams>
  <featureParams>
    <maxCatCount>0</maxCatCount>
    <featSize>1</featSize>
    <mode>ALL</mode></featureParams>
  <stageNum>15</stageNum>
  <stages>
    <!-- stage 0 -->
    <_>
      <maxWeakCount>3</maxWeakCount>
      <stageThreshold>-1.6767214536666870e+00</stageThreshold>
      <weakClassifiers>
        <_>
          <internalNodes>
            0 -1 67 -3.3030072227120399e-03</internalNodes>
          <leafValues>
            5.3846156597137451e-01 -9.3686252832412720e-01</leafValues></_>
        <_>
          <internalNodes>
            0 -1 41 -7.1445712819695473e-03</internalNodes>
          <leafValues>
            7.5068944133818150e-03 -9.8808157444000244e-01</leafValues></_>
        <_>
          <internalNodes>
            0 -1 49 -3.0335220508277416e-03</internalNodes>
          <leafValues>
            3.6922991275787354e-01 -7.4736577272415161e-01</leafValues></_></weakClassifiers></_>
    <!-- stage 1 -->
    <_>
      <maxWeakCount>4</maxWeakCount>
      <stageThreshold>-1.9042199850082397e+00</stageThreshold>
      <weakClassifiers>
        <_>
          <internalNodes>
            0 -1 56 2.7836058288812637e-03</internalNodes>
          <leafValues>
            -9.3954169750213623e-01 3.5294118523597717e-01</leafValues></_>
        <_>
          <internalNodes>
            0 -1 52 3.4776572138071060e-03</internalNodes>
          <leafValues>
            -7.6445466279983521e-01 4.5263716578483582e-01</leafValues></_>
        <_>
          <internalNodes>
            0 -1 30 -1.9903603941202164e-02</internalNodes>
          <leafValues>
            3.7659683823585510e-01 -7.0614355802536011e-01</leafValues></_>
        <_>
          <internalNodes>
            0 -1 69 -1.8084922339767218e-03</internalNodes>
          <leafValues>
            5.0591999292373657e-01 -5.4373359680175781e-01</leafValues></_></weakClassifiers></_>
    <!-- stage 2 -->
    <_>
      <maxWeakCount>5</maxWeakCount>
      <stageThreshold>-1.8625309467315674e+00</stageThreshold>
      <weakClassifiers>
        <_>
          <internalNodes>
            0 -1 48 -1.1902684345841408e-02</internalNodes>
          <leafValues>
            3.7931033968925476e-01 -9.3677043914794922e-01</leafValues></_>
        <_>
          <internalNodes>
            0 -1 56 1.3138152426108718e-03</internalNodes>
          <leafValues>
            -7.6344162225723267e-01 2.8777202963829041e-01</leafValues></_>
        <_>
          <internalNodes>
            0 -1 53 -1.9005353096872568e-03</internalNodes>
          <leafValues>
            6.8078470230102539e-01 -4.5630958676338196e-01</leafValues></_>
        <_>
          <internalNodes>
            0 -1 51 3.6798510700464249e-03</internalNodes>
          <leafValues>
            -3.7538310885429382e-01 6.5923815965652466e-01</leafValues></_>
        <_>
          <internalNodes>
            0 -1 72 -1.1960868723690510e-03</internalNodes>
          <leafValues>
            6.6937381029129028e-01 -3.3140760660171509e-01</leafValues></_></weakClassifiers></_>
    <!-- stage 3 -->
    <_>
      <maxWeakCount>6</maxWeakCount>
      <stageThreshold>-2.2538936138153076e+00</stageThreshold>
      <weakClassifiers>
        <_>
          <internalNodes>
            0 -1 74 1.6877811402082443e-02</internalNodes>
          <leafValues>
            -9.2943453788757324e-01 5.0000000000000000e-01</leafValues></_>
        <_>
          <internalNodes>
            0 -1 42 -1.5324404463171959e-02</internalNodes>
          <leafValues>
            -3.5439461469650269e-01 -9.0130835771560669e-01</leafValues></_>
        <_>
          <internalNodes>
            0 -1 62 -4.0417509153485298e-03</internalNodes>
          <leafValues>
            1.0337206721305847e-01 -7.4824064970016479e-01</leafValues></_>
        <_>
          <internalNodes>
            0 -1 55 -3.4782229922711849e-03</internalNodes>
          <leafValues>
            -8.7856036424636841e-01 1.6783186793327332e-01</leafValues></_>
        <_>
          <internalNodes>
            0 -1 35 5.0383228808641434e-03</internalNodes>
          <leafValues>
            2.3161131143569946e-01 -8.3763086795806885e-01</leafValues></_>
        <_>
          <internalNodes>
            0 -1 16 -9.2877708375453949e-03</internalNodes>
          <leafValues>
            -8.7113577127456665e-01 1.4327622950077057e-01</leafValues></_></weakClassifiers></_>
    <!-- stage 4 -->
    <_>
      <maxWeakCount>7</maxWeakCount>
      <stageThreshold>-2.1984755992889404e+00</stageThreshold>
      <weakClassifiers>
        <_>
          <internalNodes>
            0 -1 1 -1.3574498705565929e-02</internalNodes>
          <leafValues>
            3.3333334326744080e-01 -9.2936623096466064e-01</leafValues></_>
        <_>
          <internalNodes>
            0 -1 89 1.7920790705829859e-03</internalNodes>
          <leafValues>
            -7.0737022161483765e-01 6.3773848116397858e-02</leafValues></_>
        <_>
          <internalNodes>
            0 -1 58 8.9276829385198653e-05</internalNodes>
          <leafValues>
            -4.5184952020645142e-01 3.1811425089836121e-01</leafValues></_>
        <_>
          <internalNodes>
            0 -1 88 -1.7501048743724823e-02</internalNodes>
          <leafValues>
            -1. 1.5844093263149261e-01</leafValues></_>
        <_>
          <internalNodes>
            0 -1 60 -6.4567131921648979e-03</internalNodes>
          <leafValues>
            2.9761171340942383e-01 -5.4416656494140625e-01</leafValues></_>
        <_>
          <internalNodes>
            0 -1 27 -2.3541604168713093e-03</internalNodes>
          <leafValues>
            -1. 1.5218245983123779e-01</leafValues></_>
        <_>
          <internalNodes>
            0 -1 46 -2.2979212924838066e-02</internalNodes>
          <leafValues>
            -9.6174949407577515e-01 1.2365355342626572e-01</leafValues></_></weakClassifiers></_>
    <!-- stage 5 -->
    <_>
      <maxWeakCount>7</maxWeakCount>
      <stageThreshold>-2.0031075477600098e+00</stageThreshold>
      <weakClassifiers>
        <_>
          <internalNodes>
            0 -1 77 -5.4891444742679596e-03</internalNodes>
          <leafValues>
            1.1111111193895340e-01 -9.3197280168533325e-01</leafValues></_>
        <_>
          <internalNodes>
            0 -1 29 3.2414740417152643e-03</internalNodes>
          <leafValues>
            -6.7657291889190674e-01 4.2289599776268005e-01</leafValues></_>
        <_>
          <internalNodes>
            0 -1 36 -2.4507869035005569e-02</internalNodes>
          <leafValues>
            1.9397741556167603e-01 -5.7097661495208740e-01</leafValues></_>
        <_>
          <internalNodes>
            0 -1 23 3.0824763700366020e-02</internalNodes>
          <leafValues>
            1.4099210500717163e-01 -9.2393809556961060e-01</leafValues></_>
        <_>
          <internalNodes>
            0 -1 68 -3.6540632136166096e-03</internalNodes>
          <leafValues>
            6.5649604797363281e-01 -2.3020634055137634e-01</leafValues></_>
        <_>
          <internalNodes>
            0 -1 9 3.7184346001595259e-03</internalNodes>
          <leafValues>
            -4.5132514834403992e-01 3.4867623448371887e-01</leafValues></_>
        <_>
          <internalNodes>
            0 -1 15 -6.7272079177200794e-03</internalNodes>
          <leafValues>
            -8.4800118207931519e-01 1.2798342108726501e-01</leafValues></_></weakClassifiers></_>
    <!-- stage 6 -->
    <_>
      <maxWeakCount>7</maxWeakCount>
      <stageThreshold>-1.9699630737304688e+00</stageThreshold>
      <weakClassifiers>
        <_>
          <internalNodes>
            0 -1 45 8.8654123246669769e-03</internalNodes>
          <leafValues>
            -9.3193972110748291e-01 7.1428574621677399e-02</leafValues></_>
        <_>
          <internalNodes>
            0 -1 2 -4.8786564730107784e-03</internalNodes>
          <leafValues>
            4.6848028898239136e-01 -6.6999208927154541e-01</leafValues></_>
        <_>
          <internalNodes>
            0 -1 18 -7.4512376450002193e-03</internalNodes>
          <leafValues>
            -1. 7.7494429424405098e-03</leafValues></_>
        <_>
          <internalNodes>
            0 -1 34 -2.3986198939383030e-03</internalNodes>
          <leafValues>
            -8.5531783103942871e-01 1.0338837653398514e-01</leafValues></_>
        <_>
          <internalNodes>
            0 -1 57 1.6233951319009066e-03</internalNodes>
          <leafValues>
            1.0751055926084518e-01 -8.9916563034057617e-01</leafValues></_>
        <_>
          <internalNodes>
            0 -1 12 6.2245059758424759e-02</internalNodes>
          <leafValues>
            1.7484758794307709e-01 -6.5534985065460205e-01</leafValues></_>
        <_>
          <internalNodes>
            0 -1 43 9.9151500035077333e-04</internalNodes>
          <leafValues>
            -5.7647436857223511e-01 2.4514898657798767e-01</leafValues></_></weakClassifiers></_>
    <!-- stage 7 -->
    <_>
      <maxWeakCount>7</maxWeakCount>
      <stageThreshold>-1.8863511085510254e+00</stageThreshold>
      <weakClassifiers>
        <_>
          <internalNodes>
            0 -1 40 1.7085243016481400e-02</internalNodes>
          <leafValues>
            -9.2940038442611694e-01 4.1176471114158630e-01</leafValues></_>
        <_>
          <internalNodes>
            0 -1 26 -7.0155352354049683e-02</internalNodes>
          <leafValues>
            3.1856796145439148e-01 -6.8365234136581421e-01</leafValues></_>
        <_>
          <internalNodes>
            0 -1 59 -8.1832222640514374e-03</internalNodes>
          <leafValues>
            3.4101268649101257e-01 -4.3314361572265625e-01</leafValues></_>
        <_>
          <internalNodes>
            0 -1 73 1.7433429602533579e-03</internalNodes>
          <leafValues>
            -3.9579689502716064e-01 3.5727503895759583e-01</leafValues></_>
        <_>
          <internalNodes>
            0 -1 85 4.0943089872598648e-02</internalNodes>
          <leafValues>
            -3.0278974771499634e-01 5.4768311977386475e-01</leafValues></_>
        <_>
          <internalNodes>
            0 -1 44 -4.1238742414861917e-04</internalNodes>
          <leafValues>
            4.6229872107505798e-01 -2.8425526618957520e-01</leafValues></_>
        <_>
          <internalNodes>
            0 -1 58 1.2070556840626523e-04</internalNodes>
          <leafValues>
            -3.5693886876106262e-01 4.0105742216110229e-01</leafValues></_></weakClassifiers></_>
    <!-- stage 8 -->
    <_>
      <maxWeakCount>6</maxWeakCount>
      <stageThreshold>-2.0940606594085693e+00</stageThreshold>
      <weakClassifiers>
        <_>
          <internalNodes>
            0 -1 84 9.3237496912479401e-03</internalNodes>
          <leafValues>
            -9.2578315734863281e-01 6.0000002384185791e-01</leafValues></_>
        <_>
          <internalNodes>
            0 -1 17 3.5264668986201286e-03</internalNodes>
          <leafValues>
            -6.7600899934768677e-01 2.0431520044803619e-01</leafValues></_>
        <_>
          <internalNodes>
            0 -1 81 -1.7058810219168663e-02</internalNodes>
          <leafValues>
            -1. 1.1850964277982712e-02</leafValues></_>
        <_>
          <internalNodes>
            0 -1 64 -1.5098358271643519e-03</internalNodes>
          <leafValues>
            -9.1901278495788574e-01 9.0205430984497070e-02</leafValues></_>
        <_>
          <internalNodes>
            0 -1 87 1.0983189567923546e-02</internalNodes>
          <leafValues>
            1.3121651113033295e-01 -7.3715490102767944e-01</leafValues></_>
        <_>
          <internalNodes>
            0 -1 21 -3.0126167461276054e-02</internalNodes>
          <leafValues>
            -7.2554129362106323e-01 1.4610290527343750e-01</leafValues></_></weakClassifiers></_>
    <!-- stage 9 -->
    <_>
      <maxWeakCount>7</maxWeakCount>
      <stageThreshold>-2.1229391098022461e+00</stageThreshold>
      <weakClassifiers>
        <_>
          <internalNodes>
            0 -1 47 -9.6734147518873215e-03</internalNodes>
          <leafValues>
            4.6666666865348816e-01 -9.2850244045257568e-01</leafValues></_>
        <_>
          <internalNodes>
            0 -1 13 -5.2358396351337433e-02</internalNodes>
          <leafValues>
            5.2406591176986694e-01 -6.5493750572204590e-01</leafValues></_>
        <_>
          <internalNodes>
            0 -1 28 -4.2725546518340707e-04</internalNodes>
          <leafValues>
            1.2072593718767166e-01 -6.0636502504348755e-01</leafValues></_>
        <_>
          <internalNodes>
            0 -1 42 -1.5317263081669807e-02</internalNodes>
          <leafValues>
            1.6427949070930481e-01 -5.8482891321182251e-01</leafValues></_>
        <_>
          <internalNodes>
            0 -1 39 -1.3289624825119972e-02</internalNodes>
          <leafValues>
            -7.4379020929336548e-01 2.2443895041942596e-01</leafValues></_>
        <_>
          <internalNodes>
            0 -1 6 3.6179224844090641e-04</internalNodes>
          <leafValues>
            1.1115510016679764e-01 -7.4191522598266602e-01</leafValues></_>
        <_>
          <internalNodes>
            0 -1 93 3.2753850973676890e-05</internalNodes>
          <leafValues>
            -4.1099026799201965e-01 2.8490701317787170e-01</leafValues></_></weakClassifiers></_>
    <!-- stage 10 -->
    <_>
      <maxWeakCount>6</maxWeakCount>
      <stageThreshold>-1.9832011461257935e+00</stageThreshold>
      <weakClassifiers>
        <_>
          <internalNodes>
            0 -1 91 -5.4195728152990341e-03</internalNodes>
          <leafValues>
            7.7777779102325439e-01 -9.2581886053085327e-01</leafValues></_>
        <_>
          <internalNodes>
            0 -1 78 -4.2131352238357067e-03</internalNodes>
          <leafValues>
            9.1217592358589172e-02 -6.9518369436264038e-01</leafValues></_>
        <_>
          <internalNodes>
            0 -1 19 -1.2431053910404444e-03</internalNodes>
          <leafValues>
            2.2193948924541473e-01 -4.9059975147247314e-01</leafValues></_>
        <_>
          <internalNodes>
            0 -1 71 -1.1023785918951035e-03</internalNodes>
          <leafValues>
            -9.6397304534912109e-01 1.0854806005954742e-01</leafValues></_>
        <_>
          <internalNodes>
            0 -1 50 2.2994941100478172e-03</internalNodes>
          <leafValues>
            1.3247446715831757e-01 -8.4787386655807495e-01</leafValues></_>
        <_>
          <internalNodes>
            0 -1 31 6.9206394255161285e-03</internalNodes>
          <leafValues>
            1.5518777072429657e-01 -6.8859422206878662e-01</leafValues></_></weakClassifiers></_>
    <!-- stage 11 -->
    <_>
      <maxWeakCount>8</maxWeakCount>
      <stageThreshold>-1.8614203929901123e+00</stageThreshold>
      <weakClassifiers>
        <_>
          <internalNodes>
            0 -1 65 4.6518063172698021e-03</internalNodes>
          <leafValues>
            -9.2492783069610596e-01 1.</leafValues></_>
        <_>
          <internalNodes>
            0 -1 79 -1.3881237246096134e-02</internalNodes>
          <leafValues>
            6.7567253112792969e-01 -6.5517568588256836e-01</leafValues></_>
        <_>
          <internalNodes>
            0 -1 0 -2.2108986973762512e-02</internalNodes>
          <leafValues>
            -8.9284330606460571e-01 2.8667362406849861e-02</leafValues></_>
        <_>
          <internalNodes>
            0 -1 25 3.2826997339725494e-03</internalNodes>
          <leafValues>
            1.0108056664466858e-01 -7.7891945838928223e-01</leafValues></_>
        <_>
          <internalNodes>
            0 -1 14 -3.4653027541935444e-03</internalNodes>
          <leafValues>
            -5.7185190916061401e-01 1.8132711946964264e-01</leafValues></_>
        <_>
          <internalNodes>
            0 -1 32 -9.6849706023931503e-03</internalNodes>
          <leafValues>
            2.6366159319877625e-01 -4.8481664061546326e-01</leafValues></_>
        <_>
          <internalNodes>
            0 -1 70 1.4641971793025732e-03</internalNodes>
          <leafValues>
            -4.7243675589561462e-01 2.7146151661872864e-01</leafValues></_>
        <_>
          <internalNodes>
            0 -1 63 -5.2262144163250923e-03</internalNodes>
          <leafValues>
            5.8520817756652832e-01 -2.0600432157516479e-01</leafValues></_></weakClassifiers></_>
    <!-- stage 12 -->
    <_>
      <maxWeakCount>8</maxWeakCount>
      <stageThreshold>-1.9577585458755493e+00</stageThreshold>
      <weakClassifiers>
        <_>
          <internalNodes>
            0 -1 75 -1.7527226358652115e-02</internalNodes>
          <leafValues>
            1. -9.2585462331771851e-01</leafValues></_>
        <_>
          <internalNodes>
            0 -1 20 -1.9834186881780624e-02</internalNodes>
          <leafValues>
            8.1836509704589844e-01 -6.5156656503677368e-01</leafValues></_>
        <_>
          <internalNodes>
            0 -1 10 -3.5280783195048571e-03</internalNodes>
          <leafValues>
            1.1077840626239777e-01 -6.4826923608779907e-01</leafValues></_>
        <_>
          <internalNodes>
            0 -1 66 -3.4435142879374325e-05</internalNodes>
          <leafValues>
            2.5965431332588196e-01 -3.7726768851280212e-01</leafValues></_>
        <_>
          <internalNodes>
            0 -1 33 2.8207985684275627e-02</internalNodes>
          <leafValues>
            1.0481870919466019e-01 -9.5252621173858643e-01</leafValues></_>
        <_>
          <internalNodes>
            0 -1 3 -1.1522725224494934e-02</internalNodes>
          <leafValues>
            6.5031254291534424e-01 -1.6721992194652557e-01</leafValues></_>
        <_>
          <internalNodes>
            0 -1 82 -1.4681636821478605e-03</internalNodes>
          <leafValues>
            5.3807079792022705e-01 -1.7983029782772064e-01</leafValues></_>
        <_>
          <internalNodes>
            0 -1 90 -2.0883700926788151e-04</internalNodes>
          <leafValues>
            -4.5295271277427673e-01 2.5050899386405945e-01</leafValues></_></weakClassifiers></_>
    <!-- stage 13 -->
    <_>
      <maxWeakCount>8</maxWeakCount>
      <stageThreshold>-2.0581347942352295e+00</stageThreshold>
      <weakClassifiers>
        <_>
          <internalNodes>
            0 -1 8 9.4022359699010849e-03</internalNodes>
          <leafValues>
            -9.2585462331771851e-01 1.</leafValues></_>
        <_>
          <internalNodes>
            0 -1 7 1.1735856533050537e-01</internalNodes>
          <leafValues>
            -6.6722851991653442e-01 3.1582528352737427e-01</leafValues></_>
        <_>
          <internalNodes>
            0 -1 24 -2.1663138642907143e-02</internalNodes>
          <leafValues>
            -8.1633549928665161e-01 2.2115610539913177e-02</leafValues></_>
        <_>
          <internalNodes>
            0 -1 4 -4.4824471697211266e-03</internalNodes>
          <leafValues>
            4.2153668403625488e-01 -2.5471669435501099e-01</leafValues></_>
        <_>
          <internalNodes>
            0 -1 22 -2.8523515909910202e-02</internalNodes>
          <leafValues>
            -6.3661777973175049e-01 2.1256235241889954e-01</leafValues></_>
        <_>
          <internalNodes>
            0 -1 37 -3.7244670093059540e-03</internalNodes>
          <leafValues>
            4.0563502907752991e-01 -2.7236896753311157e-01</leafValues></_>
        <_>
          <internalNodes>
            0 -1 76 -9.1738865012302995e-04</internalNodes>
          <leafValues>
            3.7003901600837708e-01 -3.2223302125930786e-01</leafValues></_>
        <_>
          <internalNodes>
            0 -1 5 1.2069785967469215e-02</internalNodes>
          <leafValues>
            -3.7968727946281433e-01 3.0649718642234802e-01</leafValues></_></weakClassifiers></_>
    <!-- stage 14 -->
    <_>
      <maxWeakCount>8</maxWeakCount>
      <stageThreshold>-2.3392033576965332e+00</stageThreshold>
      <weakClassifiers>
        <_>
          <internalNodes>
            0 -1 80 -1.6480820253491402e-02</internalNodes>
          <leafValues>
            6.3636362552642822e-01 -9.2671167850494385e-01</leafValues></_>
        <_>
          <internalNodes>
            0 -1 11 2.6040934026241302e-02</internalNodes>
          <leafValues>
            -6.5613520145416260e-01 3.4004685282707214e-01</leafValues></_>
        <_>
          <internalNodes>
            0 -1 61 5.3950045257806778e-03</internalNodes>
          <leafValues>
            1.3712376356124878e-02 -8.6741453409194946e-01</leafValues></_>
        <_>
          <internalNodes>
            0 -1 54 -6.7440662533044815e-03</internalNodes>
          <leafValues>
            -8.3424323797225952e-01 9.3129456043243408e-02</leafValues></_>
        <_>
          <internalNodes>
            0 -1 92 6.1402861028909683e-03</internalNodes>
          <leafValues>
            -2.4877069890499115e-01 4.3087249994277954e-01</leafValues></_>
        <_>
          <internalNodes>
            0 -1 38 4.2605673661455512e-04</internalNodes>
          <leafValues>
            2.2999656200408936e-01 -5.3229355812072754e-01</leafValues></_>
        <_>
          <internalNodes>
            0 -1 86 2.5488259270787239e-03</internalNodes>
          <leafValues>
            -3.1376266479492188e-01 3.7484046816825867e-01</leafValues></_>
        <_>
          <internalNodes>
            0 -1 83 2.6002569939009845e-04</internalNodes>
          <leafValues>
            2.0848692953586578e-01 -5.3066146373748779e-01</leafValues></_></weakClassifiers></_></stages>
  <features>
    <_>
      <rects>
        <_>
          2 0 18 1 -1.</_>
        <_>
          8 6 6 1 3.</_></rects>
      <tilted>1</tilted></_>
    <_>
      <rects>
        <_>
          2 8 2 4 -1.</_>
        <_>
          3 8 1 4 2.</_></rects>
      <tilted>0</tilted></_>
    <_>
      <rects>
        <_>
          2 9 3 1 -1.</_>
        <_>
          3 9 1 1 3.</_></rects>
      <tilted>0</tilted></_>
    <_>
      <rects>
        <_>
          2 10 3 3 -1.</_>
        <_>
          3 11 1 1 9.</_></rects>
      <tilted>0</tilted></_>
    <_>
      <rects>
        <_>
          2 19 5 4 -1.</_>
        <_>
          2 20 5 2 2.</_></rects>
      <tilted>0</tilted></_>
    <_>
      <rects>
        <_>
          3 0 18 5 -1.</_>
        <_>
          9 0 6 5 3.</_></rects>
      <tilted>0</tilted></_>
    <_>
      <rects>
        <_>
          3 2 2 1 -1.</_>
        <_>
          4 2 1 1 2.</_></rects>
      <tilted>0</tilted></_>
    <_>
      <rects>
        <_>
          3 5 18 12 -1.</_>
        <_>
          3 5 9 6 2.</_>
        <_>
          12 11 9 6 2.</_></rects>
      <tilted>0</tilted></_>
    <_>
      <rects>
        <_>
          3 10 3 1 -1.</_>
        <_>
          4 10 1 1 3.</_></rects>
      <tilted>0</tilted></_>
    <_>
      <rects>
        <_>
          3 11 18 1 -1.</_>
        <_>
          9 11 6 1 3.</_></rects>
      <tilted>0</tilted></_>
    <_>
      <rects>
        <_>
          4 0 20 6 -1.</_>
        <_>
          4 3 20 3 2.</_></rects>
      <tilted>0</tilted></_>
    <_>
      <rects>
        <_>
          4 8 4 8 -1.</_>
        <_>
          4 12 4 4 2.</_></rects>
      <tilted>0</tilted></_>
    <_>
      <rects>
        <_>
          5 1 12 15 -1.</_>
        <_>
          9 6 4 5 9.</_></rects>
      <tilted>0</tilted></_>
    <_>
      <rects>
        <_>
          5 6 14 4 -1.</_>
        <_>
          4 7 14 2 2.</_></rects>
      <tilted>1</tilted></_>
    <_>
      <rects>
        <_>
          5 10 16 4 -1.</_>
        <_>
          9 10 8 4 2.</_></rects>
      <tilted>0</tilted></_>
    <_>
      <rects>
        <_>
          6 5 10 4 -1.</_>
        <_>
          6 5 5 4 2.</_></rects>
      <tilted>1</tilted></_>
    <_>
      <rects>
        <_>
          6 8 12 6 -1.</_>
        <_>
          10 10 4 2 9.</_></rects>
      <tilted>0</tilted></_>
    <_>
      <rects>
        <_>
          6 10 1 3 -1.</_>
        <_>
          6 11 1 1 3.</_></rects>
      <tilted>0</tilted></_>
    <_>
      <rects>
        <_>
          6 11 12 1 -1.</_>
        <_>
          12 11 6 1 2.</_></rects>
      <tilted>0</tilted></_>
    <_>
      <rects>
        <_>
          6 12 2 8 -1.</_>
        <_>
          6 12 1 4 2.</_>
        <_>
          7 16 1 4 2.</_></rects>
      <tilted>0</tilted></_>
    <_>
      <rects>
        <_>
          6 13 6 2 -1.</_>
        <_>
          8 13 2 2 3.</_></rects>
      <tilted>0</tilted></_>
    <_>
      <rects>
        <_>
          7 0 12 22 -1.</_>
        <_>
          10 0 6 22 2.</_></rects>
      <tilted>0</tilted></_>
    <_>
      <rects>
        <_>
          7 0 12 23 -1.</_>
        <_>
          10 0 6 23 2.</_></rects>
      <tilted>0</tilted></_>
    <_>
      <rects>
        <_>
          7 0 12 17 -1.</_>
        <_>
          11 0 4 17 3.</_></rects>
      <tilted>0</tilted></_>
    <_>
      <rects>
        <_>
          7 0 14 4 -1.</_>
        <_>
          7 2 14 2 2.</_></rects>
      <tilted>0</tilted></_>
    <_>
      <rects>
        <_>
          7 3 3 3 -1.</_>
        <_>
          8 4 1 1 9.</_></rects>
      <tilted>0</tilted></_>
    <_>
      <rects>
        <_>
          7 4 12 10 -1.</_>
        <_>
          13 4 6 10 2.</_></rects>
      <tilted>0</tilted></_>
    <_>
      <rects>
        <_>
          7 11 6 3 -1.</_>
        <_>
          9 11 2 3 3.</_></rects>
      <tilted>0</tilted></_>
    <_>
      <rects>
        <_>
          7 12 8 1 -1.</_>
        <_>
          11 12 4 1 2.</_></rects>
      <tilted>0</tilted></_>
    <_>
      <rects>
        <_>
          7 20 2 2 -1.</_>
        <_>
          7 20 1 1 2.</_>
        <_>
          8 21 1 1 2.</_></rects>
      <tilted>0</tilted></_>
    <_>
      <rects>
        <_>
          8 0 7 10 -1.</_>
        <_>
          8 5 7 5 2.</_></rects>
      <tilted>0</tilted></_>
    <_>
      <rects>
        <_>
          8 6 8 1 -1.</_>
        <_>
          10 8 4 1 2.</_></rects>
      <tilted>1</tilted></_>
    <_>
      <rects>
        <_>
          8 8 9 10 -1.</_>
        <_>
          11 8 3 10 3.</_></rects>
      <tilted>0</tilted></_>
    <_>
      <rects>
        <_>
          8 9 9 3 -1.</_>
        <_>
          11 10 3 1 9.</_></rects>
      <tilted>0</tilted></_>
    <_>
      <rects>
        <_>
          8 10 8 2 -1.</_>
        <_>
          10 10 4 2 2.</_></rects>
      <tilted>0</tilted></_>
    <_>
      <rects>
        <_>
          8 10 9 8 -1.</_>
        <_>
          11 10 3 8 3.</_></rects>
      <tilted>0</tilted></_>
    <_>
      <rects>
        <_>
          9 0 13 8 -1.</_>
        <_>
          9 4 13 4 2.</_></rects>
      <tilted>0</tilted></_>
    <_>
      <rects>
        <_>
          9 6 8 2 -1.</_>
        <_>
          9 6 4 1 2.</_>
        <_>
          13 7 4 1 2.</_></rects>
      <tilted>0</tilted></_>
    <_>
      <rects>
        <_>
          9 7 3 1 -1.</_>
        <_>
          10 7 1 1 3.</_></rects>
      <tilted>0</tilted></_>
    <_>
      <rects>
        <_>
          9 8 1 12 -1.</_>
        <_>
          9 14 1 6 2.</_></rects>
      <tilted>0</tilted></_>
    <_>
      <rects>
        <_>
          9 10 3 2 -1.</_>
        <_>
          10 10 1 2 3.</_></rects>
      <tilted>0</tilted></_>
    <_>
      <rects>
        <_>
          9 10 5 6 -1.</_>
        <_>
          9 13 5 3 2.</_></rects>
      <tilted>0</tilted></_>
    <_>
      <rects>
        <_>
          9 10 5 8 -1.</_>
        <_>
          9 14 5 4 2.</_></rects>
      <tilted>0</tilted></_>
    <_>
      <rects>
        <_>
          9 10 6 4 -1.</_>
        <_>
          9 11 6 2 2.</_></rects>
      <tilted>0</tilted></_>
    <_>
      <rects>
        <_>
          9 11 2 1 -1.</_>
        <_>
          10 11 1 1 2.</_></rects>
      <tilted>0</tilted></_>
    <_>
      <rects>
        <_>
          9 12 3 1 -1.</_>
        <_>
          10 12 1 1 3.</_></rects>
      <tilted>0</tilted></_>
    <_>
      <rects>
        <_>
          10 0 8 22 -1.</_>
        <_>
          12 0 4 22 2.</_></rects>
      <tilted>0</tilted></_>
    <_>
      <rects>
        <_>
          10 10 2 2 -1.</_>
        <_>
          11 10 1 2 2.</_></rects>
      <tilted>0</tilted></_>
    <_>
      <rects>
        <_>
          10 11 4 2 -1.</_>
        <_>
          11 11 2 2 2.</_></rects>
      <tilted>0</tilted></_>
    <_>
      <rects>
        <_>
          10 11 4 5 -1.</_>
        <_>
          11 11 2 5 2.</_></rects>
      <tilted>0</tilted></_>
    <_>
      <rects>
        <_>
          10 11 8 1 -1.</_>
        <_>
          14 11 4 1 2.</_></rects>
      <tilted>0</tilted></_>
    <_>
      <rects>
        <_>
          10 12 2 6 -1.</_>
        <_>
          10 12 1 3 2.</_>
        <_>
          11 15 1 3 2.</_></rects>
      <tilted>0</tilted></_>
    <_>
      <rects>
        <_>
          10 13 2 4 -1.</_>
        <_>
          10 13 1 2 2.</_>
        <_>
          11 15 1 2 2.</_></rects>
      <tilted>0</tilted></_>
    <_>
      <rects>
        <_>
          10 17 3 1 -1.</_>
        <_>
          11 17 1 1 3.</_></rects>
      <tilted>0</tilted></_>
    <_>
      <rects>
        <_>
          11 8 4 11 -1.</_>
        <_>
          12 8 2 11 2.</_></rects>
      <tilted>0</tilted></_>
    <_>
      <rects>
        <_>
          11 8 4 4 -1.</_>
        <_>
          11 10 4 2 2.</_></rects>
      <tilted>0</tilted></_>
    <_>
      <rects>
        <_>
          11 9 2 2 -1.</_>
        <_>
          11 9 1 1 2.</_>
        <_>
          12 10 1 1 2.</_></rects>
      <tilted>0</tilted></_>
    <_>
      <rects>
        <_>
          11 9 2 4 -1.</_>
        <_>
          11 11 2 2 2.</_></rects>
      <tilted>0</tilted></_>
    <_>
      <rects>
        <_>
          11 11 2 2 -1.</_>
        <_>
          11 12 2 1 2.</_></rects>
      <tilted>0</tilted></_>
    <_>
      <rects>
        <_>
          11 11 4 10 -1.</_>
        <_>
          11 11 2 5 2.</_>
        <_>
          13 16 2 5 2.</_></rects>
      <tilted>0</tilted></_>
    <_>
      <rects>
        <_>
          12 0 2 10 -1.</_>
        <_>
          12 5 2 5 2.</_></rects>
      <tilted>0</tilted></_>
    <_>
      <rects>
        <_>
          12 1 6 4 -1.</_>
        <_>
          12 2 6 2 2.</_></rects>
      <tilted>0</tilted></_>
    <_>
      <rects>
        <_>
          12 4 1 14 -1.</_>
        <_>
          12 11 1 7 2.</_></rects>
      <tilted>0</tilted></_>
    <_>
      <rects>
        <_>
          12 7 12 1 -1.</_>
        <_>
          15 7 6 1 2.</_></rects>
      <tilted>0</tilted></_>
    <_>
      <rects>
        <_>
          12 10 2 1 -1.</_>
        <_>
          12 10 1 1 2.</_></rects>
      <tilted>1</tilted></_>
    <_>
      <rects>
        <_>
          12 10 1 4 -1.</_>
        <_>
          12 12 1 2 2.</_></rects>
      <tilted>0</tilted></_>
    <_>
      <rects>
        <_>
          12 11 2 2 -1.</_>
        <_>
          12 11 1 1 2.</_>
        <_>
          13 12 1 1 2.</_></rects>
      <tilted>0</tilted></_>
    <_>
      <rects>
        <_>
          12 12 2 2 -1.</_>
        <_>
          12 12 1 1 2.</_>
        <_>
          13 13 1 1 2.</_></rects>
      <tilted>0</tilted></_>
    <_>
      <rects>
        <_>
          12 12 2 4 -1.</_>
        <_>
          12 12 1 2 2.</_>
        <_>
          13 14 1 2 2.</_></rects>
      <tilted>0</tilted></_>
    <_>
      <rects>
        <_>
          13 5 2 8 -1.</_>
        <_>
          13 5 1 4 2.</_>
        <_>
          14 9 1 4 2.</_></rects>
      <tilted>0</tilted></_>
    <_>
      <rects>
        <_>
          13 5 8 4 -1.</_>
        <_>
          15 5 4 4 2.</_></rects>
      <tilted>0</tilted></_>
    <_>
      <rects>
        <_>
          13 10 1 2 -1.</_>
        <_>
          13 10 1 1 2.</_></rects>
      <tilted>1</tilted></_>
    <_>
      <rects>
        <_>
          13 13 3 1 -1.</_>
        <_>
          14 13 1 1 3.</_></rects>
      <tilted>0</tilted></_>
    <_>
      <rects>
        <_>
          14 6 2 8 -1.</_>
        <_>
          15 6 1 8 2.</_></rects>
      <tilted>0</tilted></_>
    <_>
      <rects>
        <_>
          14 12 3 2 -1.</_>
        <_>
          15 12 1 2 3.</_></rects>
      <tilted>0</tilted></_>
    <_>
      <rects>
        <_>
          14 12 2 6 -1.</_>
        <_>
          14 12 1 3 2.</_>
        <_>
          15 15 1 3 2.</_></rects>
      <tilted>0</tilted></_>
    <_>
      <rects>
        <_>
          14 13 2 3 -1.</_>
        <_>
          14 14 2 1 3.</_></rects>
      <tilted>0</tilted></_>
    <_>
      <rects>
        <_>
          14 14 2 2 -1.</_>
        <_>
          14 14 1 1 2.</_>
        <_>
          15 15 1 1 2.</_></rects>
      <tilted>0</tilted></_>
    <_>
      <rects>
        <_>
          15 9 2 4 -1.</_>
        <_>
          15 9 1 2 2.</_>
        <_>
          16 11 1 2 2.</_></rects>
      <tilted>0</tilted></_>
    <_>
      <rects>
        <_>
          15 9 3 3 -1.</_>
        <_>
          16 9 1 3 3.</_></rects>
      <tilted>0</tilted></_>
    <_>
      <rects>
        <_>
          15 13 3 2 -1.</_>
        <_>
          16 13 1 2 3.</_></rects>
      <tilted>0</tilted></_>
    <_>
      <rects>
        <_>
          16 0 4 16 -1.</_>
        <_>
          18 0 2 16 2.</_></rects>
      <tilted>0</tilted></_>
    <_>
      <rects>
        <_>
          16 11 2 2 -1.</_>
        <_>
          16 11 1 1 2.</_>
        <_>
          17 12 1 1 2.</_></rects>
      <tilted>0</tilted></_>
    <_>
      <rects>
        <_>
          16 22 2 2 -1.</_>
        <_>
          16 22 1 1 2.</_>
        <_>
          17 23 1 1 2.</_></rects>
      <tilted>0</tilted></_>
    <_>
      <rects>
        <_>
          17 5 3 1 -1.</_>
        <_>
          18 5 1 1 3.</_></rects>
      <tilted>0</tilted></_>
    <_>
      <rects>
        <_>
          18 3 4 11 -1.</_>
        <_>
          18 3 2 11 2.</_></rects>
      <tilted>1</tilted></_>
    <_>
      <rects>
        <_>
          18 8 3 8 -1.</_>
        <_>
          19 8 1 8 3.</_></rects>
      <tilted>0</tilted></_>
    <_>
      <rects>
        <_>
          19 1 3 4 -1.</_>
        <_>
          19 1 3 2 2.</_></rects>
      <tilted>1</tilted></_>
    <_>
      <rects>
        <_>
          19 3 4 14 -1.</_>
        <_>
          19 3 4 7 2.</_></rects>
      <tilted>1</tilted></_>
    <_>
      <rects>
        <_>
          19 20 2 2 -1.</_>
        <_>
          19 20 1 1 2.</_>
        <_>
          20 21 1 1 2.</_></rects>
      <tilted>0</tilted></_>
    <_>
      <rects>
        <_>
          20 8 2 7 -1.</_>
        <_>
          21 8 1 7 2.</_></rects>
      <tilted>0</tilted></_>
    <_>
      <rects>
        <_>
          21 12 2 1 -1.</_>
        <_>
          22 12 1 1 2.</_></rects>
      <tilted>0</tilted></_>
    <_>
      <rects>
        <_>
          22 1 2 21 -1.</_>
        <_>
          23 1 1 21 2.</_></rects>
      <tilted>0</tilted></_>
    <_>
      <rects>
        <_>
          22 15 2 2 -1.</_>
        <_>
          22 15 1 1 2.</_>
        <_>
          23 16 1 1 2.</_></rects>
      <tilted>0</tilted></_></features></cascade>
</opencv_storage>
