<?xml version="1.0"?>
<!-- this cascade file detects infotainment and stearing  for ford ecosport  -->
<opencv_storage>
<cascade>
  <stageType>BOOST</stageType>
  <featureType>HAAR</featureType>
  <height>24</height>
  <width>24</width>
  <stageParams>
    <boostType>GAB</boostType>
    <minHitRate>9.9900001287460327e-01</minHitRate>
    <maxFalseAlarm>5.0000000000000000e-01</maxFalseAlarm>
    <weightTrimRate>9.4999999999999996e-01</weightTrimRate>
    <maxDepth>1</maxDepth>
    <maxWeakCount>100</maxWeakCount></stageParams>
  <featureParams>
    <maxCatCount>0</maxCatCount>
    <featSize>1</featSize>
    <mode>ALL</mode></featureParams>
  <stageNum>11</stageNum>
  <stages>
    <!-- stage 0 -->
    <_>
      <maxWeakCount>3</maxWeakCount>
      <stageThreshold>-1.5077532529830933e+00</stageThreshold>
      <weakClassifiers>
        <_>
          <internalNodes>
            0 -1 42 -2.6452623307704926e-02</internalNodes>
          <leafValues>
            8.0952382087707520e-01 -9.5398920774459839e-01</leafValues></_>
        <_>
          <internalNodes>
            0 -1 25 -1.4732094481587410e-02</internalNodes>
          <leafValues>
            2.8192442655563354e-01 -9.3616735935211182e-01</leafValues></_>
        <_>
          <internalNodes>
            0 -1 12 1.5139684081077576e-02</internalNodes>
          <leafValues>
            -8.3568841218948364e-01 4.4017010927200317e-01</leafValues></_></weakClassifiers></_>
    <!-- stage 1 -->
    <_>
      <maxWeakCount>4</maxWeakCount>
      <stageThreshold>-2.1171455383300781e+00</stageThreshold>
      <weakClassifiers>
        <_>
          <internalNodes>
            0 -1 26 -3.2217151019722223e-03</internalNodes>
          <leafValues>
            3.7777778506278992e-01 -9.4705879688262939e-01</leafValues></_>
        <_>
          <internalNodes>
            0 -1 2 -7.5446604751050472e-03</internalNodes>
          <leafValues>
            3.9316940307617188e-01 -8.5561549663543701e-01</leafValues></_>
        <_>
          <internalNodes>
            0 -1 27 -7.3715774342417717e-03</internalNodes>
          <leafValues>
            6.3961547613143921e-01 -7.0560526847839355e-01</leafValues></_>
        <_>
          <internalNodes>
            0 -1 32 1.0709252208471298e-02</internalNodes>
          <leafValues>
            -8.5765075683593750e-01 4.3222311139106750e-01</leafValues></_></weakClassifiers></_>
    <!-- stage 2 -->
    <_>
      <maxWeakCount>5</maxWeakCount>
      <stageThreshold>-1.8781678676605225e+00</stageThreshold>
      <weakClassifiers>
        <_>
          <internalNodes>
            0 -1 48 -1.9683148711919785e-02</internalNodes>
          <leafValues>
            -1.3333333656191826e-02 -9.5223879814147949e-01</leafValues></_>
        <_>
          <internalNodes>
            0 -1 23 1.5797073021531105e-02</internalNodes>
          <leafValues>
            -8.0309379100799561e-01 3.3630040287971497e-01</leafValues></_>
        <_>
          <internalNodes>
            0 -1 20 -4.9905668944120407e-02</internalNodes>
          <leafValues>
            4.0560901165008545e-01 -6.9132679700851440e-01</leafValues></_>
        <_>
          <internalNodes>
            0 -1 49 5.4810792207717896e-03</internalNodes>
          <leafValues>
            -7.6757103204727173e-01 3.9426746964454651e-01</leafValues></_>
        <_>
          <internalNodes>
            0 -1 30 6.5072146244347095e-03</internalNodes>
          <leafValues>
            -9.2271178960800171e-01 2.7828261256217957e-01</leafValues></_></weakClassifiers></_>
    <!-- stage 3 -->
    <_>
      <maxWeakCount>6</maxWeakCount>
      <stageThreshold>-1.9714034795761108e+00</stageThreshold>
      <weakClassifiers>
        <_>
          <internalNodes>
            0 -1 43 -1.6356941312551498e-02</internalNodes>
          <leafValues>
            5.7142859697341919e-01 -9.3874573707580566e-01</leafValues></_>
        <_>
          <internalNodes>
            0 -1 50 6.5813884139060974e-03</internalNodes>
          <leafValues>
            -8.3059614896774292e-01 2.1070301532745361e-01</leafValues></_>
        <_>
          <internalNodes>
            0 -1 3 -1.0772430337965488e-02</internalNodes>
          <leafValues>
            6.1405110359191895e-01 -5.8824676275253296e-01</leafValues></_>
        <_>
          <internalNodes>
            0 -1 7 -5.8559612371027470e-03</internalNodes>
          <leafValues>
            7.7769273519515991e-01 -4.0999007225036621e-01</leafValues></_>
        <_>
          <internalNodes>
            0 -1 8 -6.2667056918144226e-03</internalNodes>
          <leafValues>
            4.4488635659217834e-01 -7.7329033613204956e-01</leafValues></_>
        <_>
          <internalNodes>
            0 -1 41 -1.1165011674165726e-02</internalNodes>
          <leafValues>
            5.2816641330718994e-01 -5.1917356252670288e-01</leafValues></_></weakClassifiers></_>
    <!-- stage 4 -->
    <_>
      <maxWeakCount>4</maxWeakCount>
      <stageThreshold>-1.8568356037139893e+00</stageThreshold>
      <weakClassifiers>
        <_>
          <internalNodes>
            0 -1 10 -3.6722935736179352e-02</internalNodes>
          <leafValues>
            7.5000000000000000e-01 -9.3136781454086304e-01</leafValues></_>
        <_>
          <internalNodes>
            0 -1 19 1.9283672794699669e-02</internalNodes>
          <leafValues>
            -7.5170296430587769e-01 3.4943786263465881e-01</leafValues></_>
        <_>
          <internalNodes>
            0 -1 4 -9.2024356126785278e-02</internalNodes>
          <leafValues>
            2.2749114036560059e-01 -7.4324005842208862e-01</leafValues></_>
        <_>
          <internalNodes>
            0 -1 26 -2.5134938769042492e-03</internalNodes>
          <leafValues>
            7.1234941482543945e-01 -4.0125602483749390e-01</leafValues></_></weakClassifiers></_>
    <!-- stage 5 -->
    <_>
      <maxWeakCount>6</maxWeakCount>
      <stageThreshold>-2.2099595069885254e+00</stageThreshold>
      <weakClassifiers>
        <_>
          <internalNodes>
            0 -1 15 -3.5410009324550629e-02</internalNodes>
          <leafValues>
            6.5217393636703491e-01 -9.3598449230194092e-01</leafValues></_>
        <_>
          <internalNodes>
            0 -1 48 -1.9685804843902588e-02</internalNodes>
          <leafValues>
            4.3223595619201660e-01 -7.7114140987396240e-01</leafValues></_>
        <_>
          <internalNodes>
            0 -1 39 -7.9033663496375084e-03</internalNodes>
          <leafValues>
            5.3006315231323242e-01 -5.7583302259445190e-01</leafValues></_>
        <_>
          <internalNodes>
            0 -1 37 1.5438165064551868e-05</internalNodes>
          <leafValues>
            -8.4166753292083740e-01 2.9892453551292419e-01</leafValues></_>
        <_>
          <internalNodes>
            0 -1 5 -3.1618154607713223e-03</internalNodes>
          <leafValues>
            3.0112400650978088e-01 -7.1064877510070801e-01</leafValues></_>
        <_>
          <internalNodes>
            0 -1 22 -3.7234015762805939e-02</internalNodes>
          <leafValues>
            5.2267313003540039e-01 -4.9235314130783081e-01</leafValues></_></weakClassifiers></_>
    <!-- stage 6 -->
    <_>
      <maxWeakCount>4</maxWeakCount>
      <stageThreshold>-1.6945965290069580e+00</stageThreshold>
      <weakClassifiers>
        <_>
          <internalNodes>
            0 -1 34 -9.1787409037351608e-03</internalNodes>
          <leafValues>
            8.4615385532379150e-01 -9.2953670024871826e-01</leafValues></_>
        <_>
          <internalNodes>
            0 -1 9 -3.7041318137198687e-03</internalNodes>
          <leafValues>
            4.8412910103797913e-01 -7.2171759605407715e-01</leafValues></_>
        <_>
          <internalNodes>
            0 -1 21 -7.6322227716445923e-02</internalNodes>
          <leafValues>
            4.1050064563751221e-01 -6.3936322927474976e-01</leafValues></_>
        <_>
          <internalNodes>
            0 -1 40 9.4369761645793915e-03</internalNodes>
          <leafValues>
            -4.1529175639152527e-01 5.9602099657058716e-01</leafValues></_></weakClassifiers></_>
    <!-- stage 7 -->
    <_>
      <maxWeakCount>6</maxWeakCount>
      <stageThreshold>-1.9022578001022339e+00</stageThreshold>
      <weakClassifiers>
        <_>
          <internalNodes>
            0 -1 10 -2.7254763990640640e-02</internalNodes>
          <leafValues>
            3.1034481525421143e-01 -9.3579769134521484e-01</leafValues></_>
        <_>
          <internalNodes>
            0 -1 29 1.8595378845930099e-02</internalNodes>
          <leafValues>
            -7.4122637510299683e-01 3.1195917725563049e-01</leafValues></_>
        <_>
          <internalNodes>
            0 -1 1 -8.2203913480043411e-03</internalNodes>
          <leafValues>
            2.2499975562095642e-01 -7.9110270738601685e-01</leafValues></_>
        <_>
          <internalNodes>
            0 -1 45 -1.5683017671108246e-02</internalNodes>
          <leafValues>
            6.1034256219863892e-01 -4.1730618476867676e-01</leafValues></_>
        <_>
          <internalNodes>
            0 -1 28 -4.4172815978527069e-03</internalNodes>
          <leafValues>
            -7.8039538860321045e-01 3.1455680727958679e-01</leafValues></_>
        <_>
          <internalNodes>
            0 -1 46 -2.4614310823380947e-03</internalNodes>
          <leafValues>
            8.0651956796646118e-01 -2.8018069267272949e-01</leafValues></_></weakClassifiers></_>
    <!-- stage 8 -->
    <_>
      <maxWeakCount>6</maxWeakCount>
      <stageThreshold>-2.0549473762512207e+00</stageThreshold>
      <weakClassifiers>
        <_>
          <internalNodes>
            0 -1 14 -3.8275990635156631e-02</internalNodes>
          <leafValues>
            7.3333334922790527e-01 -9.3043476343154907e-01</leafValues></_>
        <_>
          <internalNodes>
            0 -1 33 6.5545393154025078e-03</internalNodes>
          <leafValues>
            -7.0565479993820190e-01 4.4741529226303101e-01</leafValues></_>
        <_>
          <internalNodes>
            0 -1 16 -3.8063013926148415e-03</internalNodes>
          <leafValues>
            4.5643311738967896e-01 -4.8182490468025208e-01</leafValues></_>
        <_>
          <internalNodes>
            0 -1 0 7.6590862590819597e-04</internalNodes>
          <leafValues>
            2.1196576952934265e-01 -9.4759404659271240e-01</leafValues></_>
        <_>
          <internalNodes>
            0 -1 44 -2.5116672739386559e-02</internalNodes>
          <leafValues>
            5.4247587919235229e-01 -4.1411471366882324e-01</leafValues></_>
        <_>
          <internalNodes>
            0 -1 38 9.4682932831346989e-04</internalNodes>
          <leafValues>
            -8.8994503021240234e-01 2.6511603593826294e-01</leafValues></_></weakClassifiers></_>
    <!-- stage 9 -->
    <_>
      <maxWeakCount>6</maxWeakCount>
      <stageThreshold>-2.1800093650817871e+00</stageThreshold>
      <weakClassifiers>
        <_>
          <internalNodes>
            0 -1 18 -3.7304125726222992e-02</internalNodes>
          <leafValues>
            3.6000001430511475e-01 -9.3398058414459229e-01</leafValues></_>
        <_>
          <internalNodes>
            0 -1 35 -5.0338767468929291e-03</internalNodes>
          <leafValues>
            6.4255195856094360e-01 -7.1699386835098267e-01</leafValues></_>
        <_>
          <internalNodes>
            0 -1 6 -5.1010049879550934e-02</internalNodes>
          <leafValues>
            4.0064948797225952e-01 -6.3032984733581543e-01</leafValues></_>
        <_>
          <internalNodes>
            0 -1 27 -1.0322857648134232e-02</internalNodes>
          <leafValues>
            5.2552288770675659e-01 -4.3316769599914551e-01</leafValues></_>
        <_>
          <internalNodes>
            0 -1 0 -3.9504386950284243e-04</internalNodes>
          <leafValues>
            -6.3019853830337524e-01 3.8128164410591125e-01</leafValues></_>
        <_>
          <internalNodes>
            0 -1 17 -6.2169963493943214e-03</internalNodes>
          <leafValues>
            -9.4768983125686646e-01 2.0597067475318909e-01</leafValues></_></weakClassifiers></_>
    <!-- stage 10 -->
    <_>
      <maxWeakCount>6</maxWeakCount>
      <stageThreshold>-2.1271750926971436e+00</stageThreshold>
      <weakClassifiers>
        <_>
          <internalNodes>
            0 -1 24 -2.2762864828109741e-02</internalNodes>
          <leafValues>
            2.1428571641445160e-01 -9.3388432264328003e-01</leafValues></_>
        <_>
          <internalNodes>
            0 -1 47 -1.9868306815624237e-02</internalNodes>
          <leafValues>
            4.2400291562080383e-01 -7.2685879468917847e-01</leafValues></_>
        <_>
          <internalNodes>
            0 -1 13 -2.3609693162143230e-03</internalNodes>
          <leafValues>
            -8.7338548898696899e-01 9.8279573023319244e-02</leafValues></_>
        <_>
          <internalNodes>
            0 -1 31 -2.9256411362439394e-03</internalNodes>
          <leafValues>
            -9.5555412769317627e-01 1.7468531429767609e-01</leafValues></_>
        <_>
          <internalNodes>
            0 -1 11 -2.7038593543693423e-04</internalNodes>
          <leafValues>
            -8.5154759883880615e-01 1.8670020997524261e-01</leafValues></_>
        <_>
          <internalNodes>
            0 -1 36 1.8835602328181267e-02</internalNodes>
          <leafValues>
            1.9776564836502075e-01 -9.2609697580337524e-01</leafValues></_></weakClassifiers></_></stages>
  <features>
    <_>
      <rects>
        <_>
          0 0 1 4 -1.</_>
        <_>
          0 2 1 2 2.</_></rects>
      <tilted>0</tilted></_>
    <_>
      <rects>
        <_>
          0 2 8 8 -1.</_>
        <_>
          4 2 4 8 2.</_></rects>
      <tilted>0</tilted></_>
    <_>
      <rects>
        <_>
          0 6 2 9 -1.</_>
        <_>
          1 6 1 9 2.</_></rects>
      <tilted>0</tilted></_>
    <_>
      <rects>
        <_>
          0 7 4 9 -1.</_>
        <_>
          1 7 2 9 2.</_></rects>
      <tilted>0</tilted></_>
    <_>
      <rects>
        <_>
          1 0 23 12 -1.</_>
        <_>
          1 6 23 6 2.</_></rects>
      <tilted>0</tilted></_>
    <_>
      <rects>
        <_>
          1 2 4 9 -1.</_>
        <_>
          3 2 2 9 2.</_></rects>
      <tilted>0</tilted></_>
    <_>
      <rects>
        <_>
          2 0 3 24 -1.</_>
        <_>
          2 6 3 12 2.</_></rects>
      <tilted>0</tilted></_>
    <_>
      <rects>
        <_>
          2 8 3 4 -1.</_>
        <_>
          3 8 1 4 3.</_></rects>
      <tilted>0</tilted></_>
    <_>
      <rects>
        <_>
          3 12 12 7 -1.</_>
        <_>
          9 12 6 7 2.</_></rects>
      <tilted>0</tilted></_>
    <_>
      <rects>
        <_>
          4 9 3 1 -1.</_>
        <_>
          5 9 1 1 3.</_></rects>
      <tilted>0</tilted></_>
    <_>
      <rects>
        <_>
          4 16 4 3 -1.</_>
        <_>
          3 17 4 1 3.</_></rects>
      <tilted>1</tilted></_>
    <_>
      <rects>
        <_>
          5 0 1 2 -1.</_>
        <_>
          5 1 1 1 2.</_></rects>
      <tilted>0</tilted></_>
    <_>
      <rects>
        <_>
          5 1 4 4 -1.</_>
        <_>
          5 1 2 4 2.</_></rects>
      <tilted>1</tilted></_>
    <_>
      <rects>
        <_>
          5 8 6 2 -1.</_>
        <_>
          7 10 2 2 3.</_></rects>
      <tilted>1</tilted></_>
    <_>
      <rects>
        <_>
          6 1 3 4 -1.</_>
        <_>
          7 2 1 4 3.</_></rects>
      <tilted>1</tilted></_>
    <_>
      <rects>
        <_>
          6 1 3 5 -1.</_>
        <_>
          7 2 1 5 3.</_></rects>
      <tilted>1</tilted></_>
    <_>
      <rects>
        <_>
          6 3 1 4 -1.</_>
        <_>
          6 5 1 2 2.</_></rects>
      <tilted>0</tilted></_>
    <_>
      <rects>
        <_>
          6 6 9 7 -1.</_>
        <_>
          9 6 3 7 3.</_></rects>
      <tilted>0</tilted></_>
    <_>
      <rects>
        <_>
          7 0 3 5 -1.</_>
        <_>
          8 1 1 5 3.</_></rects>
      <tilted>1</tilted></_>
    <_>
      <rects>
        <_>
          7 2 2 6 -1.</_>
        <_>
          7 2 1 6 2.</_></rects>
      <tilted>1</tilted></_>
    <_>
      <rects>
        <_>
          8 7 8 12 -1.</_>
        <_>
          8 10 8 6 2.</_></rects>
      <tilted>0</tilted></_>
    <_>
      <rects>
        <_>
          8 7 9 8 -1.</_>
        <_>
          8 11 9 4 2.</_></rects>
      <tilted>0</tilted></_>
    <_>
      <rects>
        <_>
          9 8 4 12 -1.</_>
        <_>
          9 11 4 6 2.</_></rects>
      <tilted>0</tilted></_>
    <_>
      <rects>
        <_>
          9 9 3 3 -1.</_>
        <_>
          10 10 1 1 9.</_></rects>
      <tilted>0</tilted></_>
    <_>
      <rects>
        <_>
          10 0 6 3 -1.</_>
        <_>
          10 1 6 1 3.</_></rects>
      <tilted>0</tilted></_>
    <_>
      <rects>
        <_>
          10 8 2 8 -1.</_>
        <_>
          10 12 2 4 2.</_></rects>
      <tilted>0</tilted></_>
    <_>
      <rects>
        <_>
          10 9 2 2 -1.</_>
        <_>
          10 9 1 1 2.</_>
        <_>
          11 10 1 1 2.</_></rects>
      <tilted>0</tilted></_>
    <_>
      <rects>
        <_>
          10 10 3 3 -1.</_>
        <_>
          11 11 1 1 9.</_></rects>
      <tilted>0</tilted></_>
    <_>
      <rects>
        <_>
          11 5 12 16 -1.</_>
        <_>
          17 5 6 16 2.</_></rects>
      <tilted>0</tilted></_>
    <_>
      <rects>
        <_>
          11 9 3 3 -1.</_>
        <_>
          12 10 1 1 9.</_></rects>
      <tilted>0</tilted></_>
    <_>
      <rects>
        <_>
          11 9 5 4 -1.</_>
        <_>
          11 9 5 2 2.</_></rects>
      <tilted>1</tilted></_>
    <_>
      <rects>
        <_>
          11 11 1 4 -1.</_>
        <_>
          11 13 1 2 2.</_></rects>
      <tilted>0</tilted></_>
    <_>
      <rects>
        <_>
          11 11 8 7 -1.</_>
        <_>
          15 11 4 7 2.</_></rects>
      <tilted>0</tilted></_>
    <_>
      <rects>
        <_>
          12 9 1 3 -1.</_>
        <_>
          12 10 1 1 3.</_></rects>
      <tilted>0</tilted></_>
    <_>
      <rects>
        <_>
          12 11 1 2 -1.</_>
        <_>
          12 11 1 1 2.</_></rects>
      <tilted>1</tilted></_>
    <_>
      <rects>
        <_>
          13 12 3 1 -1.</_>
        <_>
          14 12 1 1 3.</_></rects>
      <tilted>0</tilted></_>
    <_>
      <rects>
        <_>
          14 0 10 14 -1.</_>
        <_>
          14 0 5 7 2.</_>
        <_>
          19 7 5 7 2.</_></rects>
      <tilted>0</tilted></_>
    <_>
      <rects>
        <_>
          14 11 2 3 -1.</_>
        <_>
          14 11 1 3 2.</_></rects>
      <tilted>1</tilted></_>
    <_>
      <rects>
        <_>
          15 10 1 4 -1.</_>
        <_>
          15 10 1 2 2.</_></rects>
      <tilted>1</tilted></_>
    <_>
      <rects>
        <_>
          15 11 3 3 -1.</_>
        <_>
          16 12 1 1 9.</_></rects>
      <tilted>0</tilted></_>
    <_>
      <rects>
        <_>
          17 1 5 4 -1.</_>
        <_>
          16 2 5 2 2.</_></rects>
      <tilted>1</tilted></_>
    <_>
      <rects>
        <_>
          17 8 6 7 -1.</_>
        <_>
          20 8 3 7 2.</_></rects>
      <tilted>0</tilted></_>
    <_>
      <rects>
        <_>
          19 1 5 3 -1.</_>
        <_>
          18 2 5 1 3.</_></rects>
      <tilted>1</tilted></_>
    <_>
      <rects>
        <_>
          19 3 3 2 -1.</_>
        <_>
          19 3 3 1 2.</_></rects>
      <tilted>1</tilted></_>
    <_>
      <rects>
        <_>
          19 11 3 12 -1.</_>
        <_>
          20 15 1 4 9.</_></rects>
      <tilted>0</tilted></_>
    <_>
      <rects>
        <_>
          20 4 4 8 -1.</_>
        <_>
          20 4 2 4 2.</_>
        <_>
          22 8 2 4 2.</_></rects>
      <tilted>0</tilted></_>
    <_>
      <rects>
        <_>
          20 9 2 2 -1.</_>
        <_>
          20 9 1 1 2.</_>
        <_>
          21 10 1 1 2.</_></rects>
      <tilted>0</tilted></_>
    <_>
      <rects>
        <_>
          20 14 4 5 -1.</_>
        <_>
          21 15 2 5 2.</_></rects>
      <tilted>1</tilted></_>
    <_>
      <rects>
        <_>
          21 3 3 3 -1.</_>
        <_>
          20 4 3 1 3.</_></rects>
      <tilted>1</tilted></_>
    <_>
      <rects>
        <_>
          22 0 2 6 -1.</_>
        <_>
          22 0 2 3 2.</_></rects>
      <tilted>1</tilted></_>
    <_>
      <rects>
        <_>
          22 6 2 10 -1.</_>
        <_>
          23 6 1 10 2.</_></rects>
      <tilted>0</tilted></_></features></cascade>
</opencv_storage>
