<?xml version="1.0"?>
<opencv_storage>
<cascade>
  <stageType>BOOST</stageType>
  <featureType>HAAR</featureType>
  <height>24</height>
  <width>24</width>
  <stageParams>
    <boostType>GAB</boostType>
    <minHitRate>9.9900001287460327e-01</minHitRate>
    <maxFalseAlarm>5.0000000000000000e-01</maxFalseAlarm>
    <weightTrimRate>9.4999999999999996e-01</weightTrimRate>
    <maxDepth>1</maxDepth>
    <maxWeakCount>100</maxWeakCount></stageParams>
  <featureParams>
    <maxCatCount>0</maxCatCount>
    <featSize>1</featSize>
    <mode>ALL</mode></featureParams>
  <stageNum>12</stageNum>
  <stages>
    <!-- stage 0 -->
    <_>
      <maxWeakCount>3</maxWeakCount>
      <stageThreshold>-1.3164944648742676e+00</stageThreshold>
      <weakClassifiers>
        <_>
          <internalNodes>
            0 -1 1 -6.6606426239013672e-01</internalNodes>
          <leafValues>
            8.9743590354919434e-01 -9.5307916402816772e-01</leafValues></_>
        <_>
          <internalNodes>
            0 -1 31 -9.2531479895114899e-03</internalNodes>
          <leafValues>
            8.8775390386581421e-01 -9.1096758842468262e-01</leafValues></_>
        <_>
          <internalNodes>
            0 -1 30 -5.2530718967318535e-03</internalNodes>
          <leafValues>
            5.4755234718322754e-01 -9.3867439031600952e-01</leafValues></_></weakClassifiers></_>
    <!-- stage 1 -->
    <_>
      <maxWeakCount>3</maxWeakCount>
      <stageThreshold>-1.4741208553314209e+00</stageThreshold>
      <weakClassifiers>
        <_>
          <internalNodes>
            0 -1 2 -1.7307834327220917e-01</internalNodes>
          <leafValues>
            8.8571429252624512e-01 -9.4926828145980835e-01</leafValues></_>
        <_>
          <internalNodes>
            0 -1 37 -3.9058828260749578e-03</internalNodes>
          <leafValues>
            4.6108871698379517e-01 -8.9998441934585571e-01</leafValues></_>
        <_>
          <internalNodes>
            0 -1 9 -1.7562845721840858e-02</internalNodes>
          <leafValues>
            3.7513181567192078e-01 -9.3554967641830444e-01</leafValues></_></weakClassifiers></_>
    <!-- stage 2 -->
    <_>
      <maxWeakCount>5</maxWeakCount>
      <stageThreshold>-2.5876438617706299e+00</stageThreshold>
      <weakClassifiers>
        <_>
          <internalNodes>
            0 -1 46 3.0351374298334122e-03</internalNodes>
          <leafValues>
            -9.6009975671768188e-01 1.2500000000000000e-01</leafValues></_>
        <_>
          <internalNodes>
            0 -1 35 1.0987116023898125e-02</internalNodes>
          <leafValues>
            -8.1504249572753906e-01 5.4058617353439331e-01</leafValues></_>
        <_>
          <internalNodes>
            0 -1 3 -2.0158386230468750e-01</internalNodes>
          <leafValues>
            9.0035748481750488e-01 -5.5402505397796631e-01</leafValues></_>
        <_>
          <internalNodes>
            0 -1 21 2.7308524586260319e-03</internalNodes>
          <leafValues>
            -6.8895328044891357e-01 5.9861600399017334e-01</leafValues></_>
        <_>
          <internalNodes>
            0 -1 39 -5.6980731897056103e-03</internalNodes>
          <leafValues>
            5.6439232826232910e-01 -6.5462303161621094e-01</leafValues></_></weakClassifiers></_>
    <!-- stage 3 -->
    <_>
      <maxWeakCount>4</maxWeakCount>
      <stageThreshold>-1.8067234754562378e+00</stageThreshold>
      <weakClassifiers>
        <_>
          <internalNodes>
            0 -1 4 -1.4061760902404785e-01</internalNodes>
          <leafValues>
            2.8000000119209290e-01 -9.4791156053543091e-01</leafValues></_>
        <_>
          <internalNodes>
            0 -1 32 -6.5840855240821838e-03</internalNodes>
          <leafValues>
            3.2392302155494690e-01 -8.2698124647140503e-01</leafValues></_>
        <_>
          <internalNodes>
            0 -1 14 -1.0657964646816254e-01</internalNodes>
          <leafValues>
            5.0249797105789185e-01 -7.2615015506744385e-01</leafValues></_>
        <_>
          <internalNodes>
            0 -1 26 1.8436087295413017e-02</internalNodes>
          <leafValues>
            -4.5658475160598755e-01 7.7973914146423340e-01</leafValues></_></weakClassifiers></_>
    <!-- stage 4 -->
    <_>
      <maxWeakCount>4</maxWeakCount>
      <stageThreshold>-2.3355927467346191e+00</stageThreshold>
      <weakClassifiers>
        <_>
          <internalNodes>
            0 -1 16 3.6688828468322754e-01</internalNodes>
          <leafValues>
            -9.3592232465744019e-01 5.1999998092651367e-01</leafValues></_>
        <_>
          <internalNodes>
            0 -1 48 6.2054856680333614e-03</internalNodes>
          <leafValues>
            -8.0522537231445313e-01 3.7738797068595886e-01</leafValues></_>
        <_>
          <internalNodes>
            0 -1 20 -4.4242846779525280e-03</internalNodes>
          <leafValues>
            2.1745738387107849e-01 -8.5806554555892944e-01</leafValues></_>
        <_>
          <internalNodes>
            0 -1 7 -1.9849240779876709e-02</internalNodes>
          <leafValues>
            2.6362043619155884e-01 -9.6493864059448242e-01</leafValues></_></weakClassifiers></_>
    <!-- stage 5 -->
    <_>
      <maxWeakCount>5</maxWeakCount>
      <stageThreshold>-2.1282010078430176e+00</stageThreshold>
      <weakClassifiers>
        <_>
          <internalNodes>
            0 -1 27 -6.5659992396831512e-03</internalNodes>
          <leafValues>
            8.8888889551162720e-01 -9.3420416116714478e-01</leafValues></_>
        <_>
          <internalNodes>
            0 -1 43 4.6943873167037964e-03</internalNodes>
          <leafValues>
            -7.5649821758270264e-01 5.0579434633255005e-01</leafValues></_>
        <_>
          <internalNodes>
            0 -1 42 -4.3179728090763092e-03</internalNodes>
          <leafValues>
            7.0045942068099976e-01 -4.6338903903961182e-01</leafValues></_>
        <_>
          <internalNodes>
            0 -1 44 8.9813321828842163e-03</internalNodes>
          <leafValues>
            -5.3026044368743896e-01 5.8682155609130859e-01</leafValues></_>
        <_>
          <internalNodes>
            0 -1 10 3.7744615692645311e-03</internalNodes>
          <leafValues>
            -4.9992334842681885e-01 5.5615097284317017e-01</leafValues></_></weakClassifiers></_>
    <!-- stage 6 -->
    <_>
      <maxWeakCount>5</maxWeakCount>
      <stageThreshold>-1.7997071743011475e+00</stageThreshold>
      <weakClassifiers>
        <_>
          <internalNodes>
            0 -1 18 1.7520865797996521e-01</internalNodes>
          <leafValues>
            -9.3689322471618652e-01 6.0000002384185791e-01</leafValues></_>
        <_>
          <internalNodes>
            0 -1 38 -1.3816706836223602e-02</internalNodes>
          <leafValues>
            9.3348421156406403e-02 -8.1551021337509155e-01</leafValues></_>
        <_>
          <internalNodes>
            0 -1 47 3.1340543646365404e-03</internalNodes>
          <leafValues>
            -6.0617679357528687e-01 3.7681311368942261e-01</leafValues></_>
        <_>
          <internalNodes>
            0 -1 0 -8.1374822184443474e-03</internalNodes>
          <leafValues>
            2.2608765959739685e-01 -9.6229845285415649e-01</leafValues></_>
        <_>
          <internalNodes>
            0 -1 17 -9.7304128576070070e-04</internalNodes>
          <leafValues>
            -8.7907767295837402e-01 3.3278536796569824e-01</leafValues></_></weakClassifiers></_>
    <!-- stage 7 -->
    <_>
      <maxWeakCount>5</maxWeakCount>
      <stageThreshold>-1.9448523521423340e+00</stageThreshold>
      <weakClassifiers>
        <_>
          <internalNodes>
            0 -1 51 -7.0671513676643372e-02</internalNodes>
          <leafValues>
            3.0232557654380798e-01 -9.4417238235473633e-01</leafValues></_>
        <_>
          <internalNodes>
            0 -1 36 1.9209988415241241e-02</internalNodes>
          <leafValues>
            -8.1750982999801636e-01 1.2287062406539917e-01</leafValues></_>
        <_>
          <internalNodes>
            0 -1 33 -8.1903591752052307e-02</internalNodes>
          <leafValues>
            6.5850985050201416e-01 -5.2004253864288330e-01</leafValues></_>
        <_>
          <internalNodes>
            0 -1 20 -4.4461563229560852e-03</internalNodes>
          <leafValues>
            3.4613105654716492e-01 -7.4163639545440674e-01</leafValues></_>
        <_>
          <internalNodes>
            0 -1 8 -2.8142001247033477e-04</internalNodes>
          <leafValues>
            -9.4963914155960083e-01 2.2982358932495117e-01</leafValues></_></weakClassifiers></_>
    <!-- stage 8 -->
    <_>
      <maxWeakCount>6</maxWeakCount>
      <stageThreshold>-2.3926045894622803e+00</stageThreshold>
      <weakClassifiers>
        <_>
          <internalNodes>
            0 -1 25 -2.0251737534999847e-01</internalNodes>
          <leafValues>
            7.3170728981494904e-02 -9.3835616111755371e-01</leafValues></_>
        <_>
          <internalNodes>
            0 -1 6 6.3237436115741730e-03</internalNodes>
          <leafValues>
            -7.1543675661087036e-01 6.7874556779861450e-01</leafValues></_>
        <_>
          <internalNodes>
            0 -1 29 9.8277861252427101e-04</internalNodes>
          <leafValues>
            2.0044986903667450e-01 -8.7202477455139160e-01</leafValues></_>
        <_>
          <internalNodes>
            0 -1 27 -1.6668505268171430e-03</internalNodes>
          <leafValues>
            7.0465588569641113e-01 -4.0788993239402771e-01</leafValues></_>
        <_>
          <internalNodes>
            0 -1 11 9.1149359941482544e-03</internalNodes>
          <leafValues>
            2.8297185897827148e-01 -9.5973300933837891e-01</leafValues></_>
        <_>
          <internalNodes>
            0 -1 40 1.0578715009614825e-03</internalNodes>
          <leafValues>
            -8.1434351205825806e-01 2.6388862729072571e-01</leafValues></_></weakClassifiers></_>
    <!-- stage 9 -->
    <_>
      <maxWeakCount>5</maxWeakCount>
      <stageThreshold>-2.2134563922882080e+00</stageThreshold>
      <weakClassifiers>
        <_>
          <internalNodes>
            0 -1 52 1.4076847583055496e-02</internalNodes>
          <leafValues>
            -9.3482488393783569e-01 2.4137930572032928e-01</leafValues></_>
        <_>
          <internalNodes>
            0 -1 5 1.2244804203510284e-01</internalNodes>
          <leafValues>
            -7.7046114206314087e-01 3.9341253042221069e-01</leafValues></_>
        <_>
          <internalNodes>
            0 -1 13 -1.2946132570505142e-02</internalNodes>
          <leafValues>
            -8.7455779314041138e-01 1.4614702761173248e-01</leafValues></_>
        <_>
          <internalNodes>
            0 -1 24 7.9241022467613220e-03</internalNodes>
          <leafValues>
            1.8682223558425903e-01 -9.5819956064224243e-01</leafValues></_>
        <_>
          <internalNodes>
            0 -1 49 -4.0325766894966364e-04</internalNodes>
          <leafValues>
            -9.5360100269317627e-01 1.7956520617008209e-01</leafValues></_></weakClassifiers></_>
    <!-- stage 10 -->
    <_>
      <maxWeakCount>6</maxWeakCount>
      <stageThreshold>-2.2558374404907227e+00</stageThreshold>
      <weakClassifiers>
        <_>
          <internalNodes>
            0 -1 50 1.2643052265048027e-02</internalNodes>
          <leafValues>
            -9.3236714601516724e-01 1.</leafValues></_>
        <_>
          <internalNodes>
            0 -1 28 -2.4245472159236670e-03</internalNodes>
          <leafValues>
            2.5476291775703430e-01 -7.8914296627044678e-01</leafValues></_>
        <_>
          <internalNodes>
            0 -1 49 3.6970333894714713e-04</internalNodes>
          <leafValues>
            1.5794783830642700e-01 -8.2095247507095337e-01</leafValues></_>
        <_>
          <internalNodes>
            0 -1 23 -7.8391544520854950e-02</internalNodes>
          <leafValues>
            6.9362616539001465e-01 -4.0623652935028076e-01</leafValues></_>
        <_>
          <internalNodes>
            0 -1 12 -9.8432097584009171e-03</internalNodes>
          <leafValues>
            -7.3140293359756470e-01 3.4137970209121704e-01</leafValues></_>
        <_>
          <internalNodes>
            0 -1 22 8.7798520689830184e-04</internalNodes>
          <leafValues>
            -5.6294888257980347e-01 4.4536420702934265e-01</leafValues></_></weakClassifiers></_>
    <!-- stage 11 -->
    <_>
      <maxWeakCount>5</maxWeakCount>
      <stageThreshold>-1.9295090436935425e+00</stageThreshold>
      <weakClassifiers>
        <_>
          <internalNodes>
            0 -1 19 3.3394902944564819e-02</internalNodes>
          <leafValues>
            -9.3220341205596924e-01 5.0000000000000000e-01</leafValues></_>
        <_>
          <internalNodes>
            0 -1 45 -1.7944574356079102e-02</internalNodes>
          <leafValues>
            4.3387013673782349e-01 -7.5386506319046021e-01</leafValues></_>
        <_>
          <internalNodes>
            0 -1 15 3.8656100630760193e-02</internalNodes>
          <leafValues>
            -4.8647570610046387e-01 5.3217118978500366e-01</leafValues></_>
        <_>
          <internalNodes>
            0 -1 34 4.0257778018712997e-03</internalNodes>
          <leafValues>
            -4.1111302375793457e-01 5.6711703538894653e-01</leafValues></_>
        <_>
          <internalNodes>
            0 -1 41 2.2608991712331772e-03</internalNodes>
          <leafValues>
            -3.2408192753791809e-01 6.9497632980346680e-01</leafValues></_></weakClassifiers></_></stages>
  <features>
    <_>
      <rects>
        <_>
          0 2 18 8 -1.</_>
        <_>
          9 2 9 8 2.</_></rects>
      <tilted>0</tilted></_>
    <_>
      <rects>
        <_>
          0 6 24 12 -1.</_>
        <_>
          8 10 8 4 9.</_></rects>
      <tilted>0</tilted></_>
    <_>
      <rects>
        <_>
          0 10 24 4 -1.</_>
        <_>
          6 10 12 4 2.</_></rects>
      <tilted>0</tilted></_>
    <_>
      <rects>
        <_>
          0 10 24 5 -1.</_>
        <_>
          6 10 12 5 2.</_></rects>
      <tilted>0</tilted></_>
    <_>
      <rects>
        <_>
          0 12 24 3 -1.</_>
        <_>
          6 12 12 3 2.</_></rects>
      <tilted>0</tilted></_>
    <_>
      <rects>
        <_>
          1 9 10 14 -1.</_>
        <_>
          1 9 5 7 2.</_>
        <_>
          6 16 5 7 2.</_></rects>
      <tilted>0</tilted></_>
    <_>
      <rects>
        <_>
          1 11 3 1 -1.</_>
        <_>
          2 11 1 1 3.</_></rects>
      <tilted>0</tilted></_>
    <_>
      <rects>
        <_>
          1 13 21 7 -1.</_>
        <_>
          8 13 7 7 3.</_></rects>
      <tilted>0</tilted></_>
    <_>
      <rects>
        <_>
          2 2 2 1 -1.</_>
        <_>
          2 2 1 1 2.</_></rects>
      <tilted>1</tilted></_>
    <_>
      <rects>
        <_>
          2 5 8 9 -1.</_>
        <_>
          6 5 4 9 2.</_></rects>
      <tilted>0</tilted></_>
    <_>
      <rects>
        <_>
          3 11 3 3 -1.</_>
        <_>
          4 11 1 3 3.</_></rects>
      <tilted>0</tilted></_>
    <_>
      <rects>
        <_>
          5 10 12 7 -1.</_>
        <_>
          9 10 4 7 3.</_></rects>
      <tilted>0</tilted></_>
    <_>
      <rects>
        <_>
          6 0 12 12 -1.</_>
        <_>
          9 0 6 12 2.</_></rects>
      <tilted>0</tilted></_>
    <_>
      <rects>
        <_>
          6 0 12 13 -1.</_>
        <_>
          9 0 6 13 2.</_></rects>
      <tilted>0</tilted></_>
    <_>
      <rects>
        <_>
          6 0 13 12 -1.</_>
        <_>
          6 6 13 6 2.</_></rects>
      <tilted>0</tilted></_>
    <_>
      <rects>
        <_>
          6 1 6 5 -1.</_>
        <_>
          8 3 2 5 3.</_></rects>
      <tilted>1</tilted></_>
    <_>
      <rects>
        <_>
          6 9 13 14 -1.</_>
        <_>
          6 16 13 7 2.</_></rects>
      <tilted>0</tilted></_>
    <_>
      <rects>
        <_>
          6 10 8 4 -1.</_>
        <_>
          10 10 4 4 2.</_></rects>
      <tilted>0</tilted></_>
    <_>
      <rects>
        <_>
          6 10 6 14 -1.</_>
        <_>
          6 17 6 7 2.</_></rects>
      <tilted>0</tilted></_>
    <_>
      <rects>
        <_>
          7 0 3 6 -1.</_>
        <_>
          8 1 1 6 3.</_></rects>
      <tilted>1</tilted></_>
    <_>
      <rects>
        <_>
          7 11 3 3 -1.</_>
        <_>
          8 12 1 1 9.</_></rects>
      <tilted>0</tilted></_>
    <_>
      <rects>
        <_>
          7 11 4 2 -1.</_>
        <_>
          9 11 2 2 2.</_></rects>
      <tilted>0</tilted></_>
    <_>
      <rects>
        <_>
          7 12 8 4 -1.</_>
        <_>
          7 12 4 2 2.</_>
        <_>
          11 14 4 2 2.</_></rects>
      <tilted>0</tilted></_>
    <_>
      <rects>
        <_>
          8 0 14 12 -1.</_>
        <_>
          8 3 14 6 2.</_></rects>
      <tilted>0</tilted></_>
    <_>
      <rects>
        <_>
          8 9 12 13 -1.</_>
        <_>
          11 9 6 13 2.</_></rects>
      <tilted>0</tilted></_>
    <_>
      <rects>
        <_>
          9 8 7 8 -1.</_>
        <_>
          9 8 7 4 2.</_></rects>
      <tilted>1</tilted></_>
    <_>
      <rects>
        <_>
          9 9 3 3 -1.</_>
        <_>
          10 10 1 1 9.</_></rects>
      <tilted>0</tilted></_>
    <_>
      <rects>
        <_>
          9 11 3 1 -1.</_>
        <_>
          10 11 1 1 3.</_></rects>
      <tilted>0</tilted></_>
    <_>
      <rects>
        <_>
          9 11 3 2 -1.</_>
        <_>
          10 11 1 2 3.</_></rects>
      <tilted>0</tilted></_>
    <_>
      <rects>
        <_>
          9 12 9 2 -1.</_>
        <_>
          12 12 3 2 3.</_></rects>
      <tilted>0</tilted></_>
    <_>
      <rects>
        <_>
          10 11 3 3 -1.</_>
        <_>
          11 12 1 1 9.</_></rects>
      <tilted>0</tilted></_>
    <_>
      <rects>
        <_>
          10 11 4 2 -1.</_>
        <_>
          11 11 2 2 2.</_></rects>
      <tilted>0</tilted></_>
    <_>
      <rects>
        <_>
          10 12 4 1 -1.</_>
        <_>
          11 12 2 1 2.</_></rects>
      <tilted>0</tilted></_>
    <_>
      <rects>
        <_>
          12 4 7 10 -1.</_>
        <_>
          12 9 7 5 2.</_></rects>
      <tilted>0</tilted></_>
    <_>
      <rects>
        <_>
          12 8 2 4 -1.</_>
        <_>
          12 8 1 2 2.</_>
        <_>
          13 10 1 2 2.</_></rects>
      <tilted>0</tilted></_>
    <_>
      <rects>
        <_>
          12 11 3 2 -1.</_>
        <_>
          13 11 1 2 3.</_></rects>
      <tilted>0</tilted></_>
    <_>
      <rects>
        <_>
          13 5 3 12 -1.</_>
        <_>
          9 9 3 4 3.</_></rects>
      <tilted>1</tilted></_>
    <_>
      <rects>
        <_>
          13 9 2 4 -1.</_>
        <_>
          13 9 1 2 2.</_>
        <_>
          14 11 1 2 2.</_></rects>
      <tilted>0</tilted></_>
    <_>
      <rects>
        <_>
          13 10 3 3 -1.</_>
        <_>
          14 11 1 1 9.</_></rects>
      <tilted>0</tilted></_>
    <_>
      <rects>
        <_>
          13 12 3 3 -1.</_>
        <_>
          14 13 1 1 9.</_></rects>
      <tilted>0</tilted></_>
    <_>
      <rects>
        <_>
          14 11 2 1 -1.</_>
        <_>
          14 11 1 1 2.</_></rects>
      <tilted>1</tilted></_>
    <_>
      <rects>
        <_>
          14 12 1 4 -1.</_>
        <_>
          14 13 1 2 2.</_></rects>
      <tilted>0</tilted></_>
    <_>
      <rects>
        <_>
          15 8 2 4 -1.</_>
        <_>
          15 8 1 2 2.</_>
        <_>
          16 10 1 2 2.</_></rects>
      <tilted>0</tilted></_>
    <_>
      <rects>
        <_>
          15 11 3 1 -1.</_>
        <_>
          16 11 1 1 3.</_></rects>
      <tilted>0</tilted></_>
    <_>
      <rects>
        <_>
          18 2 5 4 -1.</_>
        <_>
          17 3 5 2 2.</_></rects>
      <tilted>1</tilted></_>
    <_>
      <rects>
        <_>
          18 7 3 3 -1.</_>
        <_>
          17 8 3 1 3.</_></rects>
      <tilted>1</tilted></_>
    <_>
      <rects>
        <_>
          18 11 2 1 -1.</_>
        <_>
          19 11 1 1 2.</_></rects>
      <tilted>0</tilted></_>
    <_>
      <rects>
        <_>
          18 11 2 2 -1.</_>
        <_>
          19 11 1 2 2.</_></rects>
      <tilted>0</tilted></_>
    <_>
      <rects>
        <_>
          18 11 3 2 -1.</_>
        <_>
          19 11 1 2 3.</_></rects>
      <tilted>0</tilted></_>
    <_>
      <rects>
        <_>
          20 0 4 1 -1.</_>
        <_>
          22 0 2 1 2.</_></rects>
      <tilted>0</tilted></_>
    <_>
      <rects>
        <_>
          20 8 2 4 -1.</_>
        <_>
          20 8 1 2 2.</_>
        <_>
          21 10 1 2 2.</_></rects>
      <tilted>0</tilted></_>
    <_>
      <rects>
        <_>
          21 6 2 12 -1.</_>
        <_>
          18 9 2 6 2.</_></rects>
      <tilted>1</tilted></_>
    <_>
      <rects>
        <_>
          23 9 1 3 -1.</_>
        <_>
          22 10 1 1 3.</_></rects>
      <tilted>1</tilted></_></features></cascade>
</opencv_storage>
